
#include <eml_net.h>
static const float weather_forecast_layer_0_biases[30] = { 0.000000f, -0.021363f, 0.000000f, 0.020530f, -0.031333f, 0.000000f, 0.000000f, 0.000000f, 0.000000f, -0.035286f, 0.000000f, -0.056247f, 0.000000f, 0.000000f, -0.018749f, 0.000000f, -0.049324f, -0.060489f, 0.000000f, -0.060084f, 0.000000f, 0.020579f, 0.000000f, 0.000000f, 0.000000f, 0.000000f, -0.022946f, -0.036481f, -0.044267f, 0.000000f };
static const float weather_forecast_layer_0_weights[90] = { 0.196167f, -0.773823f, -0.089096f, -0.434282f, -0.419611f, 0.031802f, -0.004487f, -0.046563f, -0.112529f, 0.136442f, 0.136353f, 0.391847f, -0.238596f, 0.375108f, -0.611230f, -0.327042f, 0.517013f, 0.388966f, 0.031280f, 0.915937f, -0.319516f, 0.938021f, 0.229297f, 0.190853f, -0.380482f, -0.338900f, -0.389008f, 0.736413f, 0.481736f, 0.055199f, -0.134917f, 0.218131f, 0.340309f, 0.227365f, 0.007888f, -0.413708f, -0.182811f, 0.110324f, 0.118139f, 0.330963f, 0.085615f, -0.414946f, -0.373324f, -0.158156f, 0.348392f, 0.164761f, -0.173646f, -0.288834f, 0.311501f, 0.035475f, 0.250592f, -0.510869f, 0.257415f, -0.373100f, 0.306578f, 0.284223f, 0.192578f, -0.464154f, -0.208875f, 0.023503f, -0.009918f, 0.112589f, -0.118064f, 0.242898f, 0.174300f, -0.135191f, -0.265744f, -0.244802f, -0.352378f, 0.391079f, -0.084863f, 0.209851f, -0.141059f, -0.076392f, 0.149574f, -0.322188f, 0.053335f, 0.352913f, -0.215957f, 0.223576f, -0.186780f, 0.041696f, -0.330504f, -0.055377f, -0.294064f, -0.233537f, 0.101341f, 0.299061f, 0.343224f, -0.109138f };
static const float weather_forecast_layer_1_biases[30] = { -0.095733f, 0.000000f, -0.008715f, 0.013327f, -0.043759f, 0.000000f, -0.027450f, 0.003910f, -0.050095f, 0.000000f, -0.026250f, -0.002823f, -0.042691f, -0.025847f, 0.000000f, -0.043153f, 0.000000f, -0.013622f, 0.000000f, 0.000000f, 0.000000f, -0.039062f, -0.027908f, -0.047772f, 0.000000f, -0.016476f, 0.008925f, -0.020886f, 0.000000f, 0.000000f };
static const float weather_forecast_layer_1_weights[900] = { 0.043321f, 0.233053f, -0.030533f, 0.244452f, 0.128825f, -0.294496f, 0.039218f, 0.210191f, 0.195806f, -0.162361f, 0.308656f, -0.207476f, 0.057314f, -0.090046f, 0.113010f, 0.018841f, 0.307945f, -0.203416f, 0.248227f, -0.312383f, 0.231860f, 0.064845f, -0.196952f, -0.105082f, 0.064507f, -0.222655f, 0.172382f, -0.286617f, -0.268164f, 0.140025f, -0.094424f, -0.241663f, 0.228471f, 0.225706f, 0.035387f, 0.079103f, -0.185786f, -0.099953f, 0.160277f, -0.093623f, -0.129426f, -0.238869f, -0.055449f, -0.298478f, -0.019792f, -0.121599f, -0.270211f, 0.219169f, 0.041676f, -0.042068f, 0.069837f, -0.036739f, 0.160122f, -0.074907f, 0.296487f, 0.169869f, 0.349664f, 0.147463f, 0.061813f, 0.177371f, 0.135982f, -0.236919f, 0.205710f, -0.024774f, -0.008072f, 0.144657f, -0.049604f, -0.150512f, -0.253443f, 0.218572f, 0.139339f, -0.235192f, -0.119736f, -0.234532f, -0.056109f, 0.033850f, 0.113978f, 0.072202f, 0.013230f, -0.191647f, 0.296222f, 0.027608f, 0.296831f, -0.216841f, -0.156231f, -0.119448f, 0.141036f, -0.232368f, 0.127232f, 0.039685f, -0.166028f, -0.111204f, -0.105136f, -0.256640f, -0.133916f, -0.224003f, -0.118907f, -0.060225f, -0.231289f, 0.010914f, -0.267913f, -0.298476f, -0.028608f, -0.133212f, 0.227571f, -0.314586f, -0.238779f, 0.066218f, 0.152283f, -0.113421f, -0.016016f, -0.042137f, 0.032895f, -0.138022f, -0.178102f, -0.233380f, 0.110575f, 0.279786f, -0.310010f, -0.025137f, -0.023906f, -0.183681f, 0.299543f, 0.163937f, -0.029122f, -0.175593f, 0.064810f, -0.089363f, -0.192857f, 0.090573f, -0.111788f, 0.278724f, -0.345183f, 0.233846f, 0.206285f, 0.001493f, -0.148762f, 0.113098f, -0.035383f, -0.093214f, 0.113916f, -0.187010f, -0.272676f, 0.079987f, -0.075685f, -0.097680f, 0.223313f, -0.029696f, -0.216983f, -0.254667f, 0.195674f, 0.307265f, -0.048633f, -0.217199f, -0.298418f, 0.148776f, 0.271369f, 0.240942f, -0.233436f, 0.059956f, -0.112674f, 0.162066f, 0.303887f, -0.071790f, 0.108698f, -0.312771f, -0.206862f, -0.288253f, 0.152355f, 0.135444f, -0.292908f, -0.246557f, -0.277852f, 0.118336f, -0.065332f, -0.284531f, 0.292012f, -0.059380f, 0.208923f, 0.069029f, -0.248491f, 0.240824f, -0.148447f, 0.107036f, 0.104934f, -0.314141f, -0.076782f, -0.139392f, -0.182293f, 0.170178f, -0.232902f, 0.064692f, 0.106615f, -0.169991f, -0.166089f, 0.091242f, -0.307056f, 0.207214f, 0.132511f, 0.140499f, 0.260703f, -0.063979f, -0.113728f, -0.021311f, 0.145056f, 0.082578f, 0.211760f, -0.222832f, -0.128256f, -0.164446f, 0.033263f, -0.027113f, 0.188612f, 0.131770f, 0.269321f, 0.034719f, -0.299368f, -0.181876f, 0.079265f, -0.239875f, 0.206761f, 0.254866f, 0.248324f, 0.225069f, -0.008653f, 0.119421f, -0.153602f, 0.302231f, -0.204305f, 0.257772f, 0.273764f, -0.293199f, 0.187561f, 0.151032f, 0.155545f, -0.100147f, -0.026304f, -0.247077f, -0.128557f, -0.305742f, -0.078824f, -0.055644f, 0.284358f, -0.214897f, 0.260597f, 0.160721f, -0.039522f, 0.094079f, -0.119873f, -0.304172f, -0.314466f, -0.107859f, 0.251561f, -0.195319f, 0.291217f, 0.174452f, -0.164474f, -0.082518f, 0.038923f, 0.225483f, -0.062489f, 0.052947f, -0.084319f, 0.156399f, -0.273295f, -0.177904f, 0.087269f, -0.297446f, -0.286166f, 0.210483f, -0.046334f, -0.208041f, 0.226757f, 0.326038f, -0.054092f, -0.247274f, -0.202130f, 0.228757f, 0.077588f, -0.157353f, -0.067150f, -0.120520f, -0.004180f, -0.015095f, -0.290406f, 0.203447f, -0.208713f, -0.066865f, -0.052428f, -0.257803f, 0.178128f, 0.219542f, 0.096288f, 0.019275f, -0.038464f, 0.211370f, 0.230515f, -0.007288f, -0.237305f, -0.119133f, 0.194234f, -0.241360f, 0.146573f, -0.295829f, -0.007806f, 0.158930f, 0.198186f, -0.145128f, 0.235609f, 0.275961f, -0.014143f, 0.154264f, -0.242204f, -0.089781f, -0.110529f, -0.229062f, 0.044609f, 0.274300f, -0.238003f, 0.307900f, -0.310925f, 0.177393f, 0.042357f, 0.286758f, 0.161457f, -0.109013f, -0.082250f, -0.288826f, 0.096693f, 0.115018f, 0.186835f, -0.220866f, -0.145099f, 0.210669f, 0.119099f, -0.156852f, 0.135945f, 0.169913f, -0.005587f, 0.087835f, 0.286805f, 0.305132f, -0.057679f, 0.232736f, -0.264509f, -0.125464f, -0.313630f, -0.266866f, -0.198333f, -0.077598f, 0.241073f, -0.206015f, 0.046274f, 0.069678f, -0.298703f, -0.011896f, -0.327166f, 0.199887f, 0.179819f, -0.301796f, -0.035025f, -0.089489f, -0.043277f, -0.224656f, -0.001213f, 0.125080f, 0.296519f, -0.001538f, 0.134550f, 0.282777f, 0.254384f, -0.132485f, 0.124746f, -0.255824f, -0.078594f, -0.266669f, -0.187665f, -0.057146f, -0.277832f, -0.267654f, 0.214444f, -0.295220f, 0.284271f, -0.031724f, -0.270850f, -0.290961f, -0.306374f, 0.257173f, -0.189780f, 0.250997f, 0.156987f, 0.169438f, 0.249534f, 0.309326f, -0.209215f, 0.124125f, 0.118715f, -0.043672f, 0.032617f, 0.208966f, 0.208866f, -0.096306f, 0.205309f, -0.216140f, 0.204118f, 0.100953f, 0.220563f, 0.040019f, 0.133676f, -0.269481f, -0.132630f, 0.238084f, -0.173214f, 0.053335f, 0.092096f, -0.091731f, -0.176419f, -0.032156f, 0.206520f, -0.269555f, 0.088411f, -0.110491f, -0.255024f, 0.282670f, -0.320143f, -0.046437f, -0.077185f, 0.147852f, -0.212475f, -0.082240f, -0.140276f, -0.009384f, -0.190993f, -0.155554f, 0.026063f, 0.177830f, -0.241359f, -0.237062f, -0.270411f, 0.231782f, 0.057447f, -0.090401f, -0.215049f, -0.208588f, 0.290062f, 0.117936f, -0.078510f, -0.221219f, 0.197007f, 0.291162f, -0.057246f, -0.282853f, 0.161433f, 0.150166f, 0.100586f, -0.308986f, 0.011415f, 0.020646f, -0.267279f, 0.072195f, -0.296699f, -0.088176f, -0.122908f, 0.146864f, -0.185141f, -0.285113f, -0.057533f, 0.051630f, 0.087154f, 0.084478f, -0.038207f, 0.092967f, -0.306696f, 0.046205f, -0.242641f, -0.055776f, -0.103541f, 0.000219f, -0.308719f, 0.104881f, -0.315404f, -0.134573f, -0.001459f, 0.275356f, 0.251678f, -0.117419f, 0.213925f, -0.309182f, 0.128174f, 0.008278f, 0.109931f, -0.315373f, -0.171457f, -0.061228f, -0.238930f, 0.103471f, -0.306920f, -0.272632f, 0.049568f, 0.051143f, 0.023323f, 0.201145f, -0.215445f, 0.152298f, 0.231773f, -0.172992f, 0.083324f, -0.177244f, 0.143259f, -0.188154f, 0.168769f, -0.084161f, -0.005866f, -0.098098f, 0.165660f, 0.094463f, 0.179054f, -0.066355f, -0.298646f, -0.148493f, 0.196699f, 0.159477f, 0.232781f, 0.150551f, 0.130358f, -0.025011f, -0.128986f, -0.184269f, -0.208870f, -0.307106f, -0.136040f, -0.026023f, 0.062292f, 0.106058f, 0.188054f, -0.141318f, 0.086065f, -0.079123f, -0.193390f, -0.229506f, -0.139745f, 0.011920f, 0.044710f, 0.102928f, 0.147053f, -0.275459f, -0.173133f, 0.043019f, 0.119391f, 0.126632f, -0.096009f, -0.237668f, -0.213938f, -0.241898f, 0.296403f, 0.312609f, -0.119564f, 0.231749f, 0.118915f, 0.302545f, -0.299482f, 0.219009f, 0.064548f, -0.025256f, 0.020414f, 0.214742f, -0.136702f, 0.139845f, 0.253933f, 0.238360f, 0.093091f, 0.050180f, 0.011476f, -0.074229f, -0.067324f, 0.227439f, 0.077817f, 0.274550f, 0.236136f, -0.139232f, -0.279870f, 0.224412f, 0.054391f, -0.002379f, -0.286333f, -0.008184f, 0.034130f, 0.156108f, 0.267547f, -0.219597f, -0.193600f, 0.211896f, 0.113125f, -0.028046f, -0.128439f, -0.090601f, -0.214416f, 0.045767f, -0.102054f, -0.299877f, -0.104054f, -0.118395f, 0.302671f, -0.193391f, 0.301365f, -0.295209f, -0.265826f, -0.195511f, -0.227737f, -0.124269f, 0.280614f, -0.240686f, 0.261729f, -0.140095f, 0.045257f, 0.030527f, -0.117972f, -0.044458f, 0.036318f, 0.008551f, -0.162568f, 0.142655f, -0.033936f, -0.149225f, -0.228334f, -0.008773f, -0.053603f, 0.168587f, -0.299355f, 0.167991f, 0.642242f, 0.184929f, 0.096100f, -0.708304f, 0.294851f, 0.151083f, 1.092348f, -1.035825f, 0.184632f, 0.155790f, 0.516488f, -0.078791f, -0.224367f, 0.647948f, -0.278433f, 0.863397f, -0.095479f, -0.261867f, 0.233021f, -0.132596f, 0.119745f, 0.583737f, 0.245328f, 0.480779f, -0.017165f, 0.096008f, -1.140030f, -0.372420f, -0.287540f, -0.205447f, -0.156387f, -0.010182f, 0.165427f, 0.272796f, 0.201380f, 0.073767f, -0.077210f, 0.167277f, -0.302041f, 0.118143f, 0.025041f, 0.078489f, 0.061682f, -0.255369f, -0.247660f, -0.093620f, -0.135889f, -0.201651f, 0.123364f, -0.072983f, 0.261215f, 0.258492f, 0.091075f, 0.238177f, -0.077186f, 0.293570f, 0.083586f, -0.038931f, 0.116264f, -0.072785f, -0.114597f, 0.160348f, -0.000282f, 0.035548f, 0.215021f, 0.073352f, -0.109987f, -0.228106f, -0.093449f, -0.210125f, -0.122763f, 0.295634f, -0.150233f, -0.146553f, -0.310984f, -0.286034f, 0.258588f, -0.188287f, -0.265014f, 0.114139f, 0.289086f, 0.071552f, -0.212194f, 0.086248f, 0.076460f, 0.055831f, 0.118131f, 0.173159f, -0.306705f, 0.009891f, 0.004991f, 0.075602f, 0.304287f, -0.305194f, -0.250303f, -0.135377f, 0.246998f, 0.302639f, -0.266391f, -0.013279f, 0.200648f, -0.269842f, -0.244860f, 0.303164f, -0.069126f, 0.180135f, -0.119569f, 0.259856f, -0.139379f, -0.139249f, -0.083152f, 0.241835f, -0.236314f, -0.247415f, -0.000812f, -0.270421f, -0.068245f, -0.067501f, -0.191968f, -0.269018f, 0.311405f, -0.300957f, -0.094193f, 0.004906f, -0.240249f, -0.195321f, -0.310179f, -0.121062f, 0.200693f, 0.283163f, -0.219754f, 0.020680f, -0.215895f, 0.048801f, 0.042826f, 0.138592f, 0.312794f, 0.169349f, -0.212815f, 0.100576f, -0.209773f, -0.096130f, 0.274677f, -0.118950f, -0.180647f, 0.197561f, -0.276995f, 0.012982f, -0.177733f, 0.152379f, 0.119434f, -0.068853f, 0.115339f, 0.259513f, -0.260960f, 0.120518f, -0.086997f, 0.291605f, 0.095741f, 0.053349f, 0.065227f, -0.112354f, -0.157814f, -0.303349f, 0.190388f, 0.196525f, -0.282917f, -0.005798f, -0.231972f, 0.269582f, 0.017007f, -0.012093f, -0.305423f, 0.074053f, -0.091696f, -0.280994f, 0.070020f, -0.138651f, 0.132445f, -0.042552f, -0.002383f, -0.106073f, -0.143287f, -0.330831f, 0.046315f, -0.085228f, -0.008915f, -0.238548f, 0.171537f, 0.015006f, 0.092995f, -0.307479f, -0.279387f, -0.076196f, -0.192850f, 0.132099f, -0.174880f, -0.057182f, 0.013016f, -0.298046f, -0.064243f, -0.073596f, -0.104041f, 0.023957f, -0.174688f, -0.188950f, -0.101287f, 0.153027f, -0.096266f, 0.286032f, -0.232230f, -0.218343f, 0.030596f, -0.228518f, 0.069401f, -0.206315f, 0.165705f, 0.034975f, 0.062593f, -0.299113f, 0.054214f, 0.020278f, 0.246396f, 0.096873f, -0.012082f, 0.166849f, -0.088960f, 0.182053f, -0.001379f, -0.202686f, -0.302381f, 0.004657f, -0.009037f, 0.116781f, -0.166916f, 0.212452f, 0.010545f, -0.004770f, 0.215130f, 0.251064f, -0.108955f, -0.185489f, -0.220796f, -0.234643f, 0.268509f, 0.288657f, 0.174793f, -0.297089f, 0.190932f, 0.124895f, 0.150086f, -0.141700f, 0.293472f, 0.173494f, -0.165985f, -0.243549f, 0.296404f, -0.002040f, 0.173880f, -0.250193f, 0.218277f, -0.013017f, -0.000157f, 0.200911f, 0.289373f, -0.201693f, -0.301650f, -0.288624f, -0.251398f, -0.291067f };
static const float weather_forecast_layer_2_biases[30] = { -0.040235f, -0.026552f, -0.026460f, -0.066209f, -0.037107f, -0.021605f, -0.011913f, 0.000000f, -0.031706f, 0.000000f, -0.027282f, 0.000000f, -0.004990f, 0.000000f, -0.016547f, -0.018837f, -0.000767f, 0.000000f, -0.011389f, -0.009492f, -0.008209f, -0.039133f, -0.011062f, 0.000000f, 0.000000f, -0.000396f, -0.055310f, -0.031114f, -0.029474f, 0.000000f };
static const float weather_forecast_layer_2_weights[900] = { 0.192836f, 0.293947f, -0.154639f, 0.289864f, 0.232588f, 0.135265f, 0.182008f, 0.183876f, 0.008827f, -0.290947f, 0.165011f, 0.089999f, 0.161944f, -0.091076f, -0.065908f, 0.005691f, 0.112814f, -0.246566f, 0.085966f, -0.133704f, 0.099186f, -0.024486f, 0.022921f, 0.098063f, -0.224567f, 0.283856f, 0.226528f, 0.112592f, -0.198241f, 0.217883f, -0.109046f, 0.135180f, 0.140465f, 0.237640f, 0.064207f, -0.069254f, -0.031090f, -0.299824f, 0.313900f, 0.308349f, 0.121294f, -0.036984f, 0.009922f, 0.229264f, -0.148826f, -0.283219f, 0.192767f, 0.240841f, 0.010372f, 0.016262f, -0.247069f, -0.098154f, 0.136847f, -0.057776f, 0.126927f, -0.293335f, -0.174082f, 0.004913f, 0.179890f, -0.197676f, -0.229549f, -0.053337f, 0.066593f, 0.166868f, -0.068262f, 0.018782f, -0.098435f, -0.130249f, -0.100799f, -0.283192f, 0.020041f, -0.248988f, -0.279335f, -0.223906f, -0.021607f, -0.268916f, -0.123947f, -0.303245f, 0.117568f, 0.211649f, 0.105213f, -0.264909f, 0.111754f, -0.297545f, -0.249161f, -0.048476f, -0.363984f, -0.128753f, -0.134301f, 0.002416f, -0.120548f, -0.241308f, 0.109697f, -0.106027f, -0.045337f, 0.212510f, 0.009372f, -0.239449f, -0.237547f, 0.011854f, 0.212883f, 0.127623f, -0.010293f, 0.120303f, 0.341657f, -0.159975f, 0.027073f, -0.068675f, 0.016419f, -0.102768f, -0.042970f, -0.335937f, -0.030298f, -0.229154f, -0.069820f, -0.017352f, 0.008641f, -0.059790f, -0.163464f, -0.086271f, 0.187359f, 0.315658f, 0.266106f, -0.282158f, 0.141106f, -0.275022f, -0.063436f, -0.162665f, -0.153191f, -0.085625f, 0.229689f, -0.110803f, -0.273229f, 0.249953f, -0.074039f, -0.188102f, -0.017171f, -0.020422f, -0.234530f, 0.268469f, -0.239967f, -0.160669f, 0.302088f, -0.288251f, -0.096129f, -0.207319f, -0.118325f, 0.230815f, -0.043175f, 0.092497f, 0.155376f, -0.272425f, 0.296323f, 0.093263f, -0.135153f, -0.124612f, -0.303054f, 0.068305f, -0.035896f, 0.272160f, 0.162381f, 0.104556f, 0.162984f, -0.230326f, 0.006457f, -0.251987f, 0.013897f, 0.081132f, -0.257182f, -0.295218f, -0.203225f, -0.060468f, 0.259659f, -0.101896f, -0.254078f, -0.165029f, -0.096249f, 0.262250f, 0.053931f, -0.274234f, 0.019842f, 0.044957f, 0.166080f, -0.266794f, 0.263884f, -0.121935f, 0.173641f, -0.081587f, 0.317539f, 0.082805f, 0.109221f, 0.201398f, -0.179785f, 0.240214f, -0.212965f, 0.185636f, 0.003880f, 0.205920f, 0.005269f, 0.221419f, 0.103504f, 0.029151f, 0.314713f, -0.115683f, 0.082709f, -0.009401f, -0.187708f, 0.265409f, 0.171570f, -0.002829f, 0.108035f, 0.153046f, 0.257345f, -0.173879f, 0.138127f, -0.041471f, -0.207737f, -0.130204f, -0.108790f, -0.185924f, -0.121288f, -0.222730f, -0.290518f, -0.199423f, 0.174544f, 0.082354f, 0.280225f, -0.290560f, 0.213303f, -0.169855f, -0.165356f, -0.220426f, -0.218390f, -0.304367f, 0.222115f, -0.204034f, -0.115537f, 0.038624f, 0.154538f, -0.115494f, -0.157210f, -0.195546f, 0.245583f, 0.129295f, -0.309791f, 0.147561f, 0.239801f, -0.120763f, 0.129342f, 0.069024f, -0.287056f, -0.303006f, -0.038537f, -0.136975f, 0.259456f, -0.175026f, 0.110307f, 0.107131f, -0.070066f, -0.233748f, 0.300777f, 0.258184f, 0.201204f, 0.306169f, -0.113257f, -0.139359f, -0.046244f, -0.311197f, 0.111744f, 0.002871f, -0.107525f, 0.028946f, 0.287072f, 0.123419f, -0.163526f, -0.252423f, -0.246156f, -0.087071f, 0.209077f, 0.180339f, -0.297497f, 0.030766f, -0.221881f, -0.083931f, -0.007231f, -0.216214f, -0.167839f, 0.130591f, 0.163595f, -0.234491f, -0.315131f, -0.073093f, 0.108616f, -0.257556f, 0.032506f, 0.242130f, 0.154617f, -0.214523f, 0.074839f, -0.026570f, 0.048428f, 0.247541f, -0.129654f, -0.063801f, -0.255422f, 0.038247f, -0.055442f, 0.055188f, 0.165408f, -0.080119f, 0.138859f, -0.163529f, -0.090086f, -0.269699f, 0.078467f, 0.068326f, 0.128802f, -0.156621f, -0.177009f, 0.217236f, -0.021195f, -0.221487f, 0.073447f, 0.046133f, 0.140831f, -0.171020f, -0.016620f, -0.043402f, 0.049518f, 0.190890f, 0.307002f, -0.016502f, -0.008761f, -0.242622f, 0.079656f, -0.085331f, 0.012904f, 0.187032f, -0.145870f, -0.007827f, -0.092613f, -0.049130f, 0.126459f, -0.081402f, 0.224806f, -0.234561f, 0.181935f, 0.088946f, 0.262700f, 0.190680f, -0.279108f, 0.192356f, 0.019918f, -0.035026f, 0.199165f, -0.005413f, 0.259738f, -0.068451f, -0.001896f, -0.278443f, 0.066329f, 0.050301f, -0.226031f, -0.175441f, 0.051896f, -0.113707f, 0.192726f, 0.173587f, -0.050045f, -0.221756f, -0.244560f, 0.046493f, -0.055272f, -0.088622f, -0.307393f, -0.255463f, 0.130043f, -0.155741f, -0.205222f, -0.196476f, 0.192944f, 0.147396f, 0.133585f, -0.247686f, 0.129347f, 0.308203f, -0.212685f, -0.334216f, 0.117795f, 0.284701f, 0.034238f, 0.158064f, 0.335863f, -0.054507f, 0.242677f, -0.148168f, -0.029400f, -0.021100f, 0.307791f, 0.261474f, 0.000927f, -0.016192f, 0.111659f, -0.274813f, -0.133400f, -0.116549f, -0.302693f, 0.211596f, -0.146362f, 0.183750f, -0.022919f, -0.032784f, -0.004758f, -0.053911f, -0.004738f, -0.106194f, -0.009298f, -0.252172f, 0.151425f, -0.280122f, 0.234043f, 0.089595f, -0.268414f, -0.289112f, -0.176651f, -0.030159f, 0.105579f, 0.255041f, 0.059543f, -0.236629f, 0.194474f, -0.208692f, -0.120523f, -0.308439f, 0.125245f, 0.313182f, -0.007221f, 0.194299f, -0.170210f, -0.210018f, 0.078393f, 0.281249f, 0.296589f, -0.254799f, -0.229888f, -0.203141f, 0.029817f, -0.000027f, 0.008505f, -0.240965f, -0.079582f, 0.058416f, 0.277566f, 0.004616f, 0.029347f, -0.016860f, -0.161963f, 0.118495f, 0.116139f, -0.198976f, 0.215275f, -0.197151f, 0.226290f, 0.306085f, 0.071499f, -0.037040f, -0.075866f, -0.302806f, 0.129325f, -0.032254f, -0.125491f, 0.285399f, 0.261694f, -0.167397f, -0.094496f, -0.116447f, 0.029338f, 0.134974f, -0.022331f, -0.198470f, 0.009837f, 0.178702f, 0.310295f, -0.240414f, -0.072678f, 0.251587f, -0.209917f, -0.163330f, -0.052402f, -0.049677f, 0.245694f, -0.042167f, -0.196466f, -0.129795f, -0.255906f, 0.080275f, 0.197866f, 0.268720f, 0.292807f, -0.119697f, 0.002793f, -0.211550f, 0.259531f, -0.073447f, 0.030322f, -0.199712f, 0.217855f, -0.089992f, -0.021795f, -0.193194f, 0.011441f, -0.017256f, -0.038944f, 0.124056f, -0.190954f, -0.117274f, -0.065269f, -0.131356f, 0.044770f, -0.132060f, 0.055383f, 0.027500f, 0.295423f, -0.171335f, -0.246750f, 0.010045f, 0.084891f, -0.245694f, -0.126472f, -0.195204f, 0.267817f, -0.180477f, 0.205256f, 0.108303f, -0.192187f, 0.012392f, -0.273722f, -0.065239f, -0.089290f, -0.004784f, -0.144317f, -0.114928f, -0.250871f, -0.081498f, 0.173889f, 0.225043f, 0.243929f, 0.261645f, 0.233589f, 0.219591f, -0.302653f, 0.051785f, 0.260751f, 0.135368f, 0.163545f, -0.108926f, -0.292076f, -0.208416f, -0.207715f, 0.265530f, 0.283917f, 0.223299f, 0.122902f, 0.099309f, -0.196115f, -0.162075f, -0.191564f, -0.073725f, -0.021785f, 0.238078f, 0.256972f, -0.163544f, -0.070815f, -0.138221f, 0.239921f, 0.178840f, -0.139381f, 0.130381f, -0.177864f, -0.220039f, -0.210788f, 0.170995f, 0.239420f, 0.304750f, -0.213620f, 0.316056f, 0.309725f, -0.312452f, 0.297678f, -0.018304f, 0.219718f, -0.138438f, -0.039005f, -0.113183f, -0.312389f, 0.207531f, 0.271347f, 0.051520f, -0.221389f, 0.099731f, -0.039123f, -0.129757f, -0.183101f, 0.147454f, -0.088554f, -0.031664f, 0.223288f, 0.023915f, 0.050878f, 0.017194f, -0.038768f, -0.083039f, 0.034239f, 0.094424f, -0.105669f, -0.247121f, 0.016476f, -0.226755f, 0.167717f, -0.041659f, 0.227051f, -0.056744f, -0.101700f, 0.009865f, 0.228946f, -0.066228f, -0.001405f, 0.256287f, 0.195680f, 0.154442f, -0.262026f, 0.266363f, 0.238332f, -0.058836f, 0.207104f, 0.106541f, 0.235724f, -0.282530f, 0.049009f, -0.230135f, -0.084302f, -0.047439f, 0.194875f, 0.103770f, -0.288038f, 0.173059f, 0.085850f, 0.017173f, -0.155282f, -0.078736f, 0.026136f, -0.017326f, 0.236803f, 0.066073f, -0.029304f, -0.032161f, -0.081344f, 0.056092f, -0.174652f, -0.166334f, -0.299123f, 0.263595f, 0.146131f, -0.201064f, 0.255996f, 0.050244f, -0.158731f, -0.028346f, -0.128821f, 0.090645f, 0.185353f, -0.025899f, 0.075489f, 0.109919f, 0.256834f, -0.121734f, -0.232032f, 0.131560f, 0.295186f, 0.165467f, 0.244859f, -0.022355f, -0.012789f, 0.293220f, -0.245513f, 0.209258f, 0.083530f, -0.217086f, 0.017681f, -0.203879f, -0.074231f, -0.187780f, -0.148856f, 0.054852f, -0.103280f, 0.032340f, 0.195178f, -0.141461f, -0.116665f, -0.096687f, -0.140371f, 0.000134f, 0.163566f, -0.235715f, 0.077183f, -0.299182f, -0.057761f, 0.012259f, 0.199149f, 0.059978f, -0.191124f, 0.275164f, 0.180230f, 0.067295f, -0.010889f, 0.186801f, 0.241081f, -0.219761f, -0.231193f, -0.161215f, -0.043747f, -0.078999f, -0.208288f, -0.074090f, 0.124858f, -0.065610f, 0.100466f, -0.060022f, 0.282683f, -0.175694f, 0.052721f, 0.158264f, -0.252041f, -0.241079f, 0.022097f, 0.121534f, 0.175671f, -0.188856f, 0.216221f, -0.233262f, 0.264774f, 0.075726f, 0.030385f, -0.170542f, 0.081029f, 0.314740f, -0.165344f, 0.078087f, 0.166129f, 0.224714f, -0.087251f, -0.131146f, 0.141833f, -0.012013f, 0.200438f, -0.037479f, -0.165174f, 0.271830f, 0.100080f, -0.030568f, 0.187100f, -0.168773f, -0.005260f, -0.001536f, -0.121893f, 0.193587f, -0.141125f, -0.013424f, -0.190081f, -0.105882f, -0.175026f, 0.150922f, -0.036598f, -0.129360f, -0.255380f, -0.001348f, 0.172077f, -0.048336f, -0.107063f, -0.054037f, 0.138648f, -0.201011f, 0.055362f, 0.199407f, -0.116864f, 0.207089f, -0.233744f, -0.103817f, -0.308249f, -0.004579f, -0.122056f, -0.269689f, -0.307362f, -0.129320f, 0.298618f, 0.212667f, 0.061222f, -0.262154f, -0.170654f, 0.033739f, -0.044510f, -0.359005f, -0.371361f, -0.273198f, -0.206716f, 0.156504f, 0.277824f, -0.128368f, -0.080452f, -0.235881f, -0.071619f, -0.170642f, -0.270501f, 0.008929f, 0.128315f, 0.219795f, -0.018216f, 0.233930f, -0.006279f, 0.308079f, -0.259730f, -0.033543f, 0.017487f, -0.162378f, -0.119992f, -0.095724f, 0.036568f, -0.221272f, -0.235092f, 0.058569f, 0.024824f, -0.000341f, 0.128338f, -0.180868f, -0.105076f, -0.090657f, -0.231702f, -0.224932f, 0.068003f, 0.304818f, -0.047826f, 0.192369f, -0.136499f, 0.095977f, 0.185872f, -0.015312f, -0.301840f, 0.290526f, 0.042151f, 0.309901f, 0.059520f, 0.262764f, 0.098485f, -0.221373f, -0.187988f, 0.091748f, 0.252827f, 0.299577f, 0.067284f, 0.097223f, 0.304683f, 0.273167f, 0.297532f, 0.104393f, -0.063072f, -0.005515f, -0.307562f, -0.157763f, 0.174891f, 0.295822f, -0.070985f, -0.229393f, 0.241036f, 0.314893f, -0.127200f, -0.233557f, 0.176364f, -0.080286f, -0.143554f, -0.152141f, -0.296699f, 0.209439f, -0.146898f, -0.202722f, 0.284063f, 0.028012f, -0.023183f, 0.145720f, 0.175708f, 0.289663f, 0.235962f, 0.150622f, -0.092074f, 0.109863f, -0.008184f, 0.286457f, 0.018913f, -0.047202f, -0.115905f, -0.106379f };
static const float weather_forecast_layer_3_biases[30] = { -0.019380f, -0.031883f, -0.003258f, 0.000000f, -0.026064f, -0.106218f, 0.021386f, -0.001139f, -0.028192f, 0.000000f, 0.004357f, 0.033300f, 0.000000f, 0.004766f, 0.000000f, -0.010154f, 0.000000f, -0.020253f, 0.002672f, -0.014617f, -0.042687f, 0.004725f, -0.102518f, 0.012239f, 0.000000f, 0.000000f, 0.022984f, 0.000000f, -0.081842f, -0.029974f };
static const float weather_forecast_layer_3_weights[900] = { 0.092935f, 0.311155f, -0.048455f, -0.097199f, -0.101835f, 0.247286f, 0.031218f, -0.061822f, 0.012441f, -0.270216f, -0.038209f, -0.162276f, 0.251900f, -0.298850f, 0.073903f, -0.162957f, 0.169007f, -0.055969f, 0.208208f, -0.114092f, 0.249798f, 0.002703f, -0.114940f, 0.079416f, -0.055826f, -0.255632f, 0.163871f, 0.006863f, -0.213914f, 0.311953f, 0.045128f, -0.230824f, -0.258162f, -0.094735f, -0.302417f, -0.042346f, -0.262669f, 0.292502f, 0.086009f, -0.129241f, 0.101484f, -0.197930f, 0.073677f, -0.174799f, -0.063598f, -0.313059f, -0.032004f, 0.110441f, 0.177441f, 0.022563f, -0.168582f, 0.304700f, 0.135182f, 0.183232f, 0.259765f, 0.158852f, 0.137184f, 0.150639f, -0.183307f, -0.130616f, -0.138483f, -0.194132f, 0.119705f, -0.219477f, -0.175425f, -0.049854f, 0.256870f, 0.265383f, -0.250544f, -0.136599f, -0.072578f, 0.051814f, -0.273576f, -0.115642f, -0.192447f, -0.143029f, -0.186742f, -0.290031f, 0.237283f, 0.287825f, 0.168922f, 0.046757f, -0.083679f, 0.051827f, -0.194565f, -0.113294f, 0.132478f, -0.119759f, -0.373897f, 0.274333f, -0.288300f, 0.237383f, 0.073833f, -0.015920f, 0.105388f, 0.172029f, 0.293285f, 0.063605f, 0.040929f, -0.184826f, -0.237616f, 0.099963f, 0.285054f, -0.067968f, -0.245606f, 0.085287f, 0.218575f, 0.248475f, 0.014965f, -0.202397f, 0.150341f, -0.033085f, 0.116431f, 0.105799f, 0.034430f, 0.163092f, 0.185636f, -0.160444f, -0.028667f, 0.066333f, 0.117633f, -0.095302f, 0.234813f, -0.140692f, 0.102292f, -0.229441f, -0.187083f, -0.186417f, -0.082385f, -0.216119f, -0.089019f, 0.141947f, -0.232188f, -0.016253f, -0.095064f, 0.187375f, -0.007539f, 0.081738f, -0.257216f, -0.305736f, -0.229247f, -0.299785f, 0.183512f, 0.238498f, -0.158640f, -0.165771f, -0.082743f, -0.298068f, 0.088008f, -0.138639f, -0.191239f, 0.126124f, 0.164568f, -0.035852f, -0.037704f, 0.057465f, 0.357538f, -0.077600f, 0.067120f, 0.049566f, -0.220605f, -0.252707f, -0.153623f, 0.155156f, -0.166087f, -0.154740f, -0.116644f, -0.343192f, -0.299682f, -0.145011f, 0.110273f, 0.267595f, -0.233845f, -0.142595f, -0.295485f, -0.215371f, 0.117013f, 0.257371f, 0.094320f, 0.098444f, -0.255347f, -0.024773f, -0.159877f, 0.199915f, -0.274743f, -0.111585f, 0.156503f, 0.129328f, -0.165528f, 0.137134f, 0.121105f, -0.110294f, -0.306561f, -0.113748f, 0.077277f, 0.118158f, 0.146691f, 0.000095f, -0.176820f, 0.070067f, -0.029181f, 0.220103f, -0.177863f, -0.232637f, 0.288163f, -0.218183f, -0.028497f, 0.021298f, 0.193105f, 0.169562f, -0.230046f, -0.297720f, 0.190316f, 0.100808f, -0.176100f, 0.078626f, 0.280169f, -0.111670f, -0.105007f, -0.188923f, -0.266580f, -0.198993f, 0.248439f, -0.218156f, 0.312697f, 0.249800f, 0.140392f, -0.222022f, 0.084480f, -0.196231f, -0.105957f, 0.048187f, -0.236110f, 0.174761f, 0.212974f, -0.200041f, 0.237500f, 0.234699f, -0.007343f, 0.130262f, 0.074229f, 0.190673f, 0.115116f, 0.191625f, -0.022258f, -0.078335f, -0.075895f, 0.226533f, 0.185712f, 0.022780f, 0.277031f, -0.232827f, 0.130280f, -0.107537f, -0.116822f, -0.219425f, 0.208019f, 0.294111f, -0.048121f, 0.315883f, 0.144284f, -0.157547f, -0.146160f, -0.275386f, -0.202131f, 0.101916f, -0.232420f, 0.032048f, 0.220254f, 0.273223f, -0.055166f, 0.092704f, -0.257673f, 0.202006f, 0.048256f, 0.052578f, -0.188709f, -0.027461f, 0.273786f, -0.150773f, -0.249859f, 0.212561f, -0.126104f, -0.097585f, 0.138797f, -0.021939f, 0.063609f, -0.295325f, 0.142026f, 0.126189f, 0.081357f, -0.188530f, 0.209130f, 0.166301f, 0.308444f, 0.068170f, 0.102097f, 0.216559f, -0.200094f, 0.267861f, 0.010788f, -0.293756f, -0.210531f, 0.083936f, 0.090348f, -0.171562f, 0.119862f, 0.287498f, -0.234665f, 0.064896f, 0.121294f, 0.258581f, -0.080909f, -0.098115f, 0.281160f, -0.040242f, -0.010102f, 0.131020f, 0.248057f, -0.198543f, 0.264204f, -0.004115f, -0.003143f, -0.292679f, 0.249284f, 0.155674f, -0.139321f, -0.177530f, 0.226186f, 0.062716f, -0.095581f, -0.011678f, -0.095565f, 0.069361f, 0.271410f, 0.253889f, 0.201193f, 0.250255f, -0.189301f, 0.242241f, -0.242978f, 0.012702f, -0.280915f, 0.278366f, 0.113260f, -0.173895f, -0.304235f, 0.240133f, 0.054412f, 0.104115f, 0.128934f, -0.016361f, 0.117508f, 0.069080f, -0.263154f, 0.075581f, -0.161829f, -0.012503f, -0.237253f, -0.087357f, -0.207158f, 0.213541f, 0.158452f, 0.273890f, -0.246110f, -0.048138f, -0.193331f, 0.108847f, -0.073341f, -0.176656f, 0.086611f, 0.273874f, -0.110607f, 0.118291f, -0.108705f, -0.132179f, -0.291848f, -0.160084f, 0.015651f, -0.291314f, 0.053013f, 0.117055f, -0.034855f, -0.123861f, -0.191643f, -0.063519f, -0.196667f, -0.226649f, 0.170449f, 0.205552f, 0.078074f, -0.305018f, -0.039704f, -0.142774f, 0.278235f, 0.057936f, 0.270720f, -0.103369f, -0.298021f, -0.100583f, -0.315294f, 0.268504f, 0.227420f, -0.130309f, -0.156698f, 0.175155f, -0.072821f, 0.266459f, 0.257346f, -0.129796f, 0.067604f, -0.081344f, -0.249485f, 0.117756f, 0.155254f, -0.299395f, -0.004502f, 0.038023f, -0.187212f, -0.147228f, -0.019919f, -0.223452f, -0.251087f, -0.189428f, 0.118942f, -0.198219f, 0.327836f, -0.033792f, 0.051075f, -0.044198f, 0.145832f, 0.162823f, 0.012338f, 0.201366f, 0.135603f, 0.053796f, 0.280846f, -0.016544f, -0.075126f, -0.194062f, -0.168987f, -0.301178f, -0.303774f, -0.258337f, 0.123553f, -0.153416f, -0.178876f, -0.259739f, -0.112645f, 0.208278f, -0.038189f, 0.079859f, 0.221430f, -0.312992f, 0.306370f, 0.081861f, 0.167464f, 0.204783f, 0.171948f, -0.173988f, 0.105981f, 0.297264f, 0.037934f, -0.114775f, -0.159661f, -0.132623f, 0.279461f, -0.189127f, -0.118651f, -0.288368f, 0.198762f, -0.283837f, 0.125901f, 0.006537f, -0.004065f, -0.203117f, -0.076277f, -0.183105f, -0.226911f, -0.065593f, -0.215413f, -0.144918f, -0.078356f, 0.104064f, -0.042664f, -0.156917f, -0.151769f, -0.199468f, -0.336103f, -0.019980f, -0.235142f, -0.235545f, 0.212345f, -0.157038f, -0.211101f, -0.307297f, -0.240606f, 0.128664f, 0.019881f, 0.050865f, -0.148905f, -0.256014f, -0.111101f, 0.179711f, -0.002904f, 0.222825f, 0.068335f, -0.277975f, -0.308108f, -0.162199f, -0.266953f, 0.197955f, -0.204847f, -0.286363f, -0.177303f, 0.156964f, 0.102893f, 0.314185f, -0.061173f, 0.266221f, -0.243231f, -0.046907f, -0.099140f, -0.246183f, 0.249615f, 0.040165f, 0.013137f, -0.218129f, -0.286899f, -0.068231f, 0.046631f, 0.054772f, 0.164783f, 0.028538f, -0.267905f, 0.171292f, -0.286672f, -0.102191f, 0.026066f, -0.026544f, 0.128627f, 0.156878f, 0.220990f, 0.250960f, -0.346488f, -0.140740f, 0.331735f, 0.059663f, 0.192455f, 0.116471f, 0.119409f, 0.224516f, 0.244780f, -0.242123f, -0.195528f, -0.022795f, 0.003259f, 0.235986f, -0.248100f, -0.145636f, 0.117195f, 0.273165f, 0.143151f, -0.264295f, -0.061468f, -0.244518f, 0.336932f, -0.063300f, -0.366889f, 0.174480f, -0.136737f, -0.198763f, 0.149212f, 0.102097f, -0.005518f, 0.242679f, 0.029985f, 0.198208f, -0.162802f, 0.015907f, 0.232889f, -0.038431f, -0.135668f, -0.210305f, -0.169700f, -0.053382f, -0.276967f, -0.134195f, -0.185792f, 0.109001f, 0.147538f, -0.257407f, -0.023453f, 0.075408f, -0.109504f, -0.034919f, -0.040683f, -0.191661f, -0.011468f, 0.239657f, -0.025847f, 0.298380f, 0.059690f, -0.134339f, -0.114137f, -0.190343f, -0.177600f, -0.240873f, -0.212540f, -0.029343f, 0.079318f, 0.237827f, -0.257956f, -0.165323f, -0.051395f, -0.301539f, -0.114270f, -0.274036f, -0.041130f, 0.286432f, -0.026154f, -0.178278f, -0.053547f, -0.008919f, -0.196253f, -0.088091f, 0.020932f, 0.026621f, -0.292981f, 0.215518f, 0.201224f, 0.231185f, 0.183951f, -0.205045f, -0.243903f, 0.098432f, -0.205248f, -0.216051f, 0.185192f, -0.214953f, -0.003930f, -0.153762f, 0.052412f, -0.114378f, -0.064524f, -0.021869f, 0.211999f, 0.178507f, -0.202310f, -0.153215f, 0.273807f, -0.019394f, -0.282585f, -0.138293f, 0.147780f, -0.010689f, -0.277944f, 0.231588f, 0.145673f, 0.268668f, -0.000160f, -0.244109f, 0.345470f, -0.045106f, -0.330447f, 0.221684f, -0.022201f, 0.252812f, 0.291487f, -0.141762f, 0.185857f, 0.004289f, 0.041624f, -0.042657f, 0.129580f, 0.114656f, -0.214546f, 0.315018f, 0.051122f, -0.073461f, 0.123439f, 0.108326f, 0.055916f, -0.038231f, -0.308618f, -0.100183f, 0.231818f, 0.061684f, -0.093225f, 0.286529f, -0.120797f, -0.179090f, 0.000705f, -0.003211f, -0.296260f, 0.250245f, -0.086210f, 0.171439f, -0.178473f, 0.025641f, -0.007294f, 0.206507f, 0.107326f, -0.266747f, 0.026734f, 0.236922f, -0.070293f, 0.280910f, -0.232631f, -0.109677f, 0.071628f, -0.259596f, 0.001768f, -0.308499f, -0.242169f, -0.201338f, -0.116149f, -0.082336f, -0.017457f, 0.126681f, 0.116124f, -0.081698f, 0.144460f, 0.295327f, -0.127983f, -0.104245f, 0.290601f, -0.163652f, 0.036340f, -0.167453f, 0.224376f, 0.309363f, 0.131413f, -0.208905f, 0.079616f, -0.242919f, 0.128853f, -0.267815f, -0.265812f, 0.225324f, 0.021569f, -0.226392f, -0.003464f, 0.115479f, 0.175300f, -0.107943f, -0.065184f, -0.113390f, -0.143852f, 0.263722f, -0.320948f, -0.244946f, -0.028627f, 0.011633f, -0.198018f, -0.270780f, 0.177057f, -0.119118f, -0.225072f, -0.197028f, 0.149450f, 0.015655f, 0.050274f, 0.125961f, -0.026464f, 0.073720f, 0.017735f, 0.256079f, -0.151386f, 0.271711f, 0.010718f, -0.141774f, -0.280574f, -0.166642f, -0.041622f, -0.243257f, 0.287951f, -0.306414f, -0.088924f, 0.295799f, 0.068364f, 0.141271f, 0.315562f, 0.172967f, 0.179543f, 0.033075f, -0.060213f, -0.241756f, -0.276150f, -0.225677f, -0.061121f, -0.116297f, -0.076564f, 0.060649f, 0.266591f, 0.271332f, 0.232252f, -0.222269f, -0.159708f, 0.136883f, 0.004365f, 0.307814f, -0.054642f, -0.094677f, -0.135443f, -0.046498f, 0.163570f, 0.213243f, 0.095659f, 0.239638f, 0.285243f, -0.241852f, -0.140358f, 0.249988f, 0.016154f, 0.085744f, 0.128871f, 0.024004f, 0.264667f, -0.165808f, 0.238189f, -0.155278f, 0.266441f, 0.211685f, -0.235447f, -0.168778f, 0.213910f, -0.110146f, -0.187919f, -0.104854f, -0.166010f, 0.200158f, 0.078987f, 0.008368f, -0.047283f, -0.102283f, -0.036015f, 0.076825f, -0.064984f, 0.079366f, -0.137689f, -0.255470f, 0.097024f, -0.233073f, 0.109058f, 0.041442f, -0.206492f, 0.166141f, 0.106361f, 0.141911f, 0.059280f, 0.258441f, -0.149212f, 0.176866f, 0.072458f, -0.100712f, 0.114883f, -0.106226f, 0.097095f, 0.068245f, 0.180286f, 0.111037f, -0.195772f, 0.040578f, 0.104502f, -0.295714f, -0.100056f, 0.258159f, -0.367646f, -0.065879f, 0.211419f, -0.292455f, 0.206240f, 0.279880f, 0.148682f, 0.042421f, 0.060648f, -0.269129f, 0.130650f, 0.240888f, 0.292553f, 0.012380f, -0.156594f, -0.185810f, 0.237876f, -0.202512f, -0.299603f, -0.045494f, -0.306696f, 0.018725f, 0.077876f, -0.231944f, 0.251881f, 0.213398f, -0.113581f, -0.135627f, -0.311021f, -0.146586f, 0.021454f, 0.080696f };
static const float weather_forecast_layer_4_biases[30] = { 0.000000f, 0.000000f, -0.041633f, 0.021459f, -0.041463f, -0.001110f, 0.063105f, -0.048160f, 0.132757f, -0.067624f, -0.025971f, 0.041409f, -0.046879f, 0.000000f, -0.043656f, -0.049070f, -0.025463f, 0.019041f, -0.025732f, 0.000000f, -0.076237f, 0.000000f, 0.000000f, -0.019776f, -0.058601f, -0.063595f, 0.011399f, -0.050431f, 0.013535f, 0.018488f };
static const float weather_forecast_layer_4_weights[900] = { 0.226678f, 0.253777f, 0.066959f, 0.142856f, 0.080677f, -0.062779f, 0.096630f, -0.167889f, 0.027900f, 0.015324f, -0.116719f, 0.022722f, -0.246046f, -0.135375f, 0.023633f, 0.101738f, 0.052725f, -0.258736f, 0.075516f, 0.037138f, -0.310513f, -0.262528f, -0.243246f, 0.029000f, -0.205338f, 0.189938f, -0.312837f, 0.304985f, 0.232724f, -0.197163f, -0.261068f, -0.277384f, 0.007876f, -0.284143f, -0.059707f, -0.261759f, -0.321874f, 0.126139f, 0.252635f, -0.256976f, -0.049584f, -0.030056f, 0.018862f, -0.311658f, 0.095687f, -0.170125f, -0.048583f, -0.301252f, -0.098263f, -0.280352f, -0.144319f, -0.008350f, -0.023281f, 0.061099f, 0.048660f, 0.092425f, -0.192822f, 0.227976f, 0.286795f, 0.191670f, 0.236377f, -0.312612f, 0.257454f, -0.167307f, -0.342311f, -0.093849f, 0.057802f, -0.221869f, 0.309244f, -0.168531f, -0.020398f, -0.286680f, 0.019876f, 0.013766f, 0.043288f, -0.062376f, -0.226508f, 0.124768f, 0.153363f, -0.136417f, -0.101070f, -0.240239f, -0.068706f, 0.004194f, -0.173314f, 0.076002f, 0.036868f, -0.013810f, 0.021682f, -0.156815f, 0.137502f, 0.049072f, -0.115486f, 0.229353f, 0.154063f, 0.196395f, 0.083158f, -0.089123f, 0.233109f, 0.149510f, -0.132559f, -0.125064f, 0.283205f, -0.066226f, -0.096915f, -0.047055f, -0.140119f, 0.105879f, -0.011840f, 0.122974f, 0.186990f, -0.065199f, -0.158658f, 0.118508f, -0.005874f, 0.215172f, -0.125965f, -0.282485f, -0.152858f, 0.036518f, 0.240352f, -0.069222f, -0.089811f, 0.169610f, 0.005367f, -0.285170f, 0.188473f, 0.018489f, -0.128975f, 0.071760f, -0.180033f, -0.205583f, -0.209907f, -0.173925f, -0.212649f, -0.065686f, 0.157494f, 0.260182f, 0.017168f, 0.145649f, 0.084456f, -0.270049f, -0.130923f, -0.222167f, -0.235648f, -0.213350f, -0.054154f, 0.137296f, 0.235209f, 0.240381f, -0.130690f, 0.030661f, -0.146616f, -0.121310f, 0.179073f, -0.097770f, -0.256807f, 0.276765f, -0.194418f, 0.256597f, -0.088257f, -0.104392f, -0.071693f, -0.297229f, 0.135708f, 0.285523f, -0.010128f, -0.187934f, 0.167942f, -0.251017f, -0.146987f, 0.115175f, 0.118117f, -0.110869f, -0.114018f, -0.179073f, 0.237875f, -0.184570f, 0.050380f, -0.111779f, -0.250712f, -0.178561f, -0.359101f, -0.004063f, 0.304544f, -0.294615f, -0.034104f, -0.174340f, 0.412219f, 0.162764f, -0.402520f, 0.036650f, -0.033674f, -0.106710f, 0.128454f, 0.094472f, -0.139020f, 0.219315f, -0.276716f, 0.025728f, -0.142430f, -0.214835f, -0.037511f, 0.263802f, 0.000693f, -0.251298f, -0.077471f, 0.278911f, 0.179922f, 0.256228f, -0.096049f, -0.291642f, 0.212301f, 0.096569f, -0.189989f, 0.193941f, 0.087118f, 0.091202f, -0.090359f, -0.168456f, 0.308324f, 0.163039f, 0.079705f, 0.096683f, -0.319005f, -0.260845f, 0.042022f, 0.298310f, 0.103586f, 0.151159f, -0.096580f, -0.047526f, -0.148306f, 0.219175f, -0.094978f, 0.044483f, 0.251019f, -0.136301f, -0.019310f, 0.097037f, 0.079665f, 0.107127f, 0.099055f, 0.177943f, 0.301242f, -0.148981f, -0.145655f, 0.264032f, -0.297439f, 0.139333f, 0.287527f, -0.085228f, -0.224445f, -0.248049f, -0.042324f, -0.165577f, 0.054827f, -0.039231f, -0.185148f, -0.238584f, -0.025354f, -0.114036f, 0.305812f, 0.147925f, -0.230365f, 0.192078f, 0.027127f, 0.094333f, -0.276423f, -0.307546f, -0.057854f, -0.278530f, 0.311357f, 0.201646f, 0.045773f, -0.174172f, -0.189495f, 0.168136f, 0.183028f, -0.105504f, 0.145141f, -0.168043f, 0.285291f, -0.015801f, 0.283075f, -0.130820f, 0.118429f, 0.039743f, 0.180963f, 0.100812f, 0.068533f, 0.252767f, 0.197843f, 0.297146f, -0.154278f, -0.182539f, 0.177587f, 0.221358f, -0.302552f, -0.187145f, 0.102256f, 0.101699f, -0.272835f, 0.263291f, -0.264833f, -0.075479f, 0.080935f, 0.315491f, -0.043589f, 0.265185f, 0.109782f, 0.323250f, 0.310107f, -0.044660f, 0.125257f, -0.258303f, -0.035423f, 0.039993f, 0.310863f, -0.136625f, -0.027076f, -0.008422f, -0.014987f, -0.323215f, -0.077943f, -0.281802f, -0.036520f, -0.044772f, 0.229623f, 0.037926f, 0.117905f, 0.222415f, -0.092294f, -0.046939f, -0.253766f, -0.250344f, -0.059043f, -0.025275f, -0.090316f, -0.050325f, 0.206412f, -0.145030f, -0.273315f, -0.054223f, 0.007043f, 0.159258f, -0.057101f, -0.097981f, 0.202349f, 0.226126f, 0.138628f, -0.101784f, -0.137045f, 0.024205f, -0.010708f, 0.011534f, 0.211632f, -0.254495f, 0.121631f, 0.295755f, 0.220953f, -0.279501f, 0.233897f, -0.089914f, -0.200868f, -0.314341f, -0.000365f, -0.122037f, -0.061516f, 0.190195f, 0.135993f, -0.037069f, -0.081637f, 0.078566f, -0.116693f, 0.106489f, -0.256453f, 0.139830f, 0.045618f, 0.050009f, -0.121666f, 0.294946f, -0.059630f, 0.026244f, 0.033289f, 0.235202f, 0.191779f, -0.154851f, 0.122924f, 0.266214f, -0.176893f, -0.250711f, -0.090029f, -0.158509f, -0.055659f, 0.072829f, -0.028963f, -0.083024f, -0.153083f, 0.289419f, 0.190085f, -0.344919f, -0.016864f, -0.096316f, -0.025323f, 0.019055f, 0.260647f, -0.217245f, -0.245340f, 0.248696f, -0.338932f, 0.071612f, -0.229171f, -0.224792f, -0.004387f, -0.125992f, 0.106811f, 0.029833f, 0.001426f, 0.341918f, 0.075929f, 0.137178f, -0.260835f, 0.214789f, -0.009458f, -0.161295f, -0.019347f, 0.232695f, -0.045211f, 0.042369f, 0.059495f, -0.029317f, -0.076624f, -0.014212f, -0.192269f, -0.042414f, -0.155569f, 0.312195f, -0.084326f, -0.120480f, 0.255329f, -0.051093f, 0.032665f, 0.196723f, -0.147631f, 0.256873f, -0.171294f, 0.025765f, 0.230253f, -0.292240f, -0.278293f, 0.153461f, 0.013221f, -0.114133f, -0.236984f, 0.275522f, -0.100761f, -0.021204f, -0.287185f, 0.237124f, -0.169086f, -0.218391f, 0.097386f, -0.282641f, -0.229247f, -0.179130f, -0.231028f, -0.177765f, 0.242148f, 0.157610f, -0.182013f, -0.127949f, 0.172865f, -0.230175f, -0.149142f, -0.087419f, -0.295125f, -0.103644f, 0.219370f, 0.267265f, 0.179208f, -0.156364f, 0.270342f, -0.077643f, 0.115557f, 0.243406f, 0.052542f, -0.241246f, -0.216605f, -0.044875f, 0.060385f, 0.249122f, -0.060860f, 0.085162f, 0.133032f, 0.084424f, 0.270913f, 0.128565f, 0.091145f, 0.048416f, -0.246255f, -0.091725f, -0.084901f, -0.179186f, -0.226794f, -0.109403f, -0.082763f, -0.178066f, 0.313101f, 0.053014f, -0.307148f, -0.170457f, 0.164282f, 0.134259f, -0.225622f, -0.258532f, 0.216430f, -0.015825f, 0.242138f, -0.062256f, 0.303106f, 0.091029f, 0.265001f, -0.150247f, 0.116724f, 0.254281f, -0.121509f, -0.079450f, -0.085161f, 0.058679f, -0.080736f, -0.197659f, -0.058777f, -0.331929f, -0.300976f, -0.322287f, -0.072951f, -0.111286f, 0.277799f, -0.203930f, -0.123788f, 0.031742f, 0.299528f, 0.124464f, -0.161847f, 0.267254f, 0.126400f, -0.073902f, -0.110120f, -0.210223f, -0.229502f, -0.080744f, 0.116483f, 0.165318f, -0.036580f, 0.005189f, -0.114142f, -0.127278f, 0.313280f, -0.162584f, -0.019635f, -0.197085f, 0.290476f, 0.085563f, 0.297035f, 0.166409f, -0.280708f, -0.195284f, 0.161898f, 0.043454f, -0.204993f, -0.132617f, -0.192913f, 0.273696f, -0.061031f, 0.245768f, -0.156776f, -0.100149f, 0.131902f, -0.251459f, 0.213197f, -0.126811f, -0.272288f, -0.224928f, -0.199887f, 0.210609f, -0.170016f, 0.061403f, -0.030530f, -0.093697f, 0.138975f, 0.151367f, 0.101714f, -0.219603f, -0.083066f, -0.137590f, 0.068835f, 0.170675f, 0.156987f, 0.110555f, -0.192014f, -0.309185f, 0.041720f, -0.170553f, 0.020000f, 0.317786f, -0.144790f, 0.158399f, 0.194311f, -0.420070f, 0.082917f, -0.197042f, 0.030760f, -0.034053f, 0.269413f, -0.021357f, -0.236100f, -0.028639f, -0.102213f, -0.165828f, -0.072108f, 0.130547f, -0.292794f, -0.220914f, -0.288835f, 0.111164f, 0.214986f, 0.036808f, -0.125583f, -0.100628f, 0.181479f, -0.067366f, -0.247091f, 0.284478f, 0.123359f, 0.319728f, 0.206022f, 0.173449f, -0.152838f, -0.206548f, 0.253158f, 0.257654f, -0.028718f, -0.229410f, -0.211167f, -0.252006f, 0.029469f, -0.350567f, 0.134604f, 0.000387f, 0.119647f, 0.047893f, 0.177736f, -0.237944f, -0.052301f, -0.246382f, 0.080575f, -0.153093f, 0.060450f, -0.107514f, -0.248093f, 0.277450f, -0.136964f, -0.186508f, -0.239782f, 0.080548f, -0.272518f, 0.123270f, -0.149461f, -0.218444f, -0.025406f, 0.118340f, -0.283159f, -0.003786f, -0.228091f, -0.138120f, -0.072733f, -0.219469f, -0.059479f, -0.214863f, -0.247963f, -0.095791f, -0.024212f, 0.274527f, -0.266637f, -0.027246f, 0.284936f, -0.258156f, -0.246695f, 0.235696f, 0.220263f, 0.242160f, -0.011619f, -0.168051f, -0.141504f, -0.309310f, -0.126131f, 0.114583f, -0.216282f, -0.141602f, -0.234450f, -0.036361f, -0.217278f, -0.292437f, 0.093378f, 0.114974f, 0.198782f, 0.265869f, -0.087032f, -0.241210f, 0.103328f, 0.263378f, 0.203076f, -0.293048f, 0.308810f, 0.005650f, 0.055524f, 0.026373f, -0.121692f, 0.346818f, 0.097976f, -0.219669f, -0.259123f, 0.012714f, -0.054800f, -0.126889f, -0.164166f, -0.021154f, -0.086448f, -0.050387f, 0.083048f, 0.182747f, 0.262476f, 0.164146f, 0.290726f, -0.044669f, 0.311878f, 0.198072f, -0.140576f, 0.304430f, -0.020111f, 0.166351f, -0.210530f, -0.304081f, 0.077736f, 0.195245f, 0.236903f, -0.151535f, -0.070648f, -0.019486f, -0.213608f, 0.312063f, -0.171030f, -0.285678f, 0.264962f, -0.033413f, 0.192264f, -0.117471f, -0.239785f, 0.140776f, 0.157311f, 0.029308f, -0.037045f, -0.144826f, 0.254274f, -0.227072f, -0.253011f, 0.169966f, -0.062608f, 0.030432f, -0.084665f, 0.270888f, -0.209885f, -0.283671f, 0.163561f, 0.098783f, -0.127502f, -0.235106f, 0.070655f, 0.212678f, -0.013026f, 0.033877f, -0.309831f, -0.109019f, 0.053010f, 0.249258f, 0.324168f, 0.097396f, 0.012505f, 0.052249f, -0.327838f, -0.062898f, -0.149958f, -0.155501f, -0.356610f, 0.182836f, 0.057458f, 0.186918f, -0.323869f, -0.086158f, 0.215360f, 0.090670f, -0.081154f, -0.247937f, 0.034818f, -0.229998f, 0.228107f, -0.111090f, 0.076934f, -0.143009f, -0.193495f, -0.096787f, -0.190683f, 0.042028f, -0.183265f, 0.098391f, -0.247215f, 0.048456f, -0.205074f, -0.099390f, -0.151164f, -0.156340f, 0.309837f, 0.019165f, 0.179182f, 0.269627f, -0.100613f, 0.065095f, 0.197024f, -0.272839f, -0.279947f, 0.144872f, 0.182632f, 0.095130f, -0.230578f, 0.289695f, 0.234031f, -0.123992f, 0.290224f, 0.260603f, 0.156807f, -0.232481f, 0.164142f, -0.236230f, -0.260372f, -0.194842f, -0.244754f, -0.010686f, 0.018224f, -0.073878f, 0.013782f, 0.318986f, -0.283132f, -0.309902f, 0.204076f, 0.154455f, -0.084664f, -0.315766f, 0.216228f, 0.141326f, -0.259462f, -0.063356f, -0.219764f, -0.089379f, 0.249238f, -0.290593f, -0.122017f, 0.046387f, 0.040275f, 0.140218f, -0.112454f, -0.133418f, -0.063531f, 0.248654f, 0.172551f, -0.181216f, 0.127330f, 0.011586f, -0.195760f, -0.146818f, 0.118844f, 0.273795f, 0.023765f, -0.064281f, -0.186732f, -0.107115f, 0.153320f, -0.212303f, 0.273342f, -0.297922f, 0.188668f, 0.098364f, 0.034208f, -0.068453f, -0.008247f, -0.044011f, 0.077679f, -0.114570f, -0.119472f, -0.079051f };
static const float weather_forecast_layer_5_biases[30] = { -0.035209f, 0.099701f, -0.070676f, 0.096935f, -0.009109f, -0.009061f, 0.001812f, 0.006998f, -0.015167f, -0.063440f, -0.001223f, 0.001897f, -0.065638f, -0.008336f, 0.000000f, -0.014945f, -0.019961f, -0.001716f, -0.038352f, -0.038713f, 0.000000f, -0.108651f, -0.027390f, -0.081079f, -0.022378f, -0.008967f, 0.006286f, 0.025434f, 0.036687f, 0.121624f };
static const float weather_forecast_layer_5_weights[900] = { -0.172608f, 0.208934f, -0.233436f, -0.239920f, 0.298341f, -0.204987f, 0.192444f, 0.130439f, -0.193418f, 0.028158f, 0.075268f, 0.254855f, -0.231987f, -0.062862f, -0.217486f, -0.060549f, -0.224889f, 0.085576f, -0.140448f, 0.177062f, -0.138693f, -0.131894f, 0.118774f, 0.097964f, 0.267549f, -0.168160f, 0.233486f, 0.233916f, -0.102953f, 0.060852f, -0.071939f, -0.040362f, 0.198455f, -0.227915f, -0.136669f, 0.179022f, 0.134622f, 0.097548f, 0.165250f, -0.009131f, 0.213231f, 0.035922f, 0.040350f, -0.032224f, -0.213460f, 0.299287f, 0.258806f, -0.051843f, -0.198538f, -0.183180f, 0.179134f, 0.129574f, -0.078107f, -0.242738f, 0.109309f, -0.138234f, 0.131165f, -0.206450f, 0.031146f, 0.284105f, 0.290472f, -0.145702f, -0.274719f, -0.182400f, 0.098700f, 0.263879f, 0.317490f, 0.210999f, 0.262302f, -0.170914f, -0.260644f, -0.261543f, 0.087440f, -0.052658f, -0.269874f, -0.046823f, 0.201095f, -0.280705f, -0.022835f, 0.082945f, -0.106210f, -0.307070f, -0.030081f, -0.100434f, -0.211279f, -0.199942f, -0.166140f, 0.116149f, -0.037974f, -0.095431f, 0.251189f, 0.289989f, -0.090190f, -0.222024f, 0.292331f, 0.032006f, 0.029276f, -0.129843f, 0.123252f, -0.009030f, 0.057389f, 0.088657f, -0.251126f, 0.028669f, -0.185530f, -0.148132f, 0.219635f, -0.040165f, -0.217147f, 0.011953f, -0.049289f, -0.036001f, 0.285109f, -0.091165f, 0.034912f, -0.016140f, 0.083988f, -0.241747f, -0.130135f, 0.071536f, -0.040940f, -0.396330f, 0.119095f, 0.009530f, -0.174826f, 0.170496f, -0.036805f, -0.064181f, 0.111937f, -0.107041f, -0.326517f, -0.216867f, 0.276819f, -0.181082f, -0.228269f, 0.091873f, 0.000825f, -0.323934f, -0.203079f, -0.116908f, 0.264376f, 0.147860f, -0.254979f, 0.041907f, -0.129832f, -0.198957f, -0.110028f, -0.229742f, -0.398422f, -0.067980f, -0.140736f, -0.212698f, -0.325010f, -0.222284f, 0.127896f, -0.004530f, 0.312931f, -0.304239f, -0.282575f, -0.077708f, 0.209118f, -0.179126f, -0.086185f, 0.298832f, -0.194516f, -0.292089f, -0.182386f, -0.126501f, 0.183794f, -0.106781f, -0.163580f, 0.231393f, -0.221346f, 0.152700f, 0.236518f, 0.251548f, -0.247913f, 0.057386f, 0.083211f, -0.022082f, 0.169941f, 0.216474f, -0.239047f, -0.012096f, -0.190266f, -0.263946f, -0.124945f, 0.086198f, 0.017801f, -0.226203f, -0.185763f, 0.251632f, -0.232691f, 0.118576f, 0.039016f, 0.089700f, 0.055303f, -0.197391f, -0.193886f, 0.070324f, -0.159630f, -0.096650f, -0.116308f, 0.148839f, 0.104420f, -0.176475f, -0.068926f, 0.206229f, 0.010766f, 0.175287f, 0.125730f, -0.081165f, -0.277406f, 0.117449f, -0.097950f, 0.055436f, -0.104382f, -0.109360f, -0.060971f, -0.140316f, 0.185844f, 0.211391f, -0.084218f, 0.286743f, 0.088387f, -0.117044f, -0.078179f, 0.283241f, 0.241304f, 0.069848f, -0.005193f, -0.287038f, -0.028596f, -0.064790f, 0.235032f, -0.151658f, -0.051994f, 0.167280f, 0.278719f, -0.148162f, -0.349838f, 0.221147f, -0.198756f, 0.200579f, 0.013479f, 0.026582f, -0.115723f, -0.369968f, 0.284011f, 0.033803f, 0.163330f, -0.105517f, 0.103982f, -0.170012f, 0.051636f, -0.287915f, -0.319364f, 0.180733f, 0.096103f, -0.076452f, -0.262905f, 0.052627f, -0.270065f, -0.176104f, 0.197851f, 0.006767f, 0.297665f, -0.214062f, 0.186834f, 0.297802f, 0.052743f, 0.234571f, -0.127083f, -0.221915f, -0.009794f, 0.213236f, -0.131494f, -0.130993f, 0.358895f, 0.010324f, -0.058214f, 0.261511f, 0.159497f, -0.243950f, 0.070276f, -0.011631f, 0.050112f, 0.082727f, 0.128982f, -0.072930f, 0.002006f, -0.053699f, -0.267820f, -0.246906f, -0.184642f, 0.190099f, 0.043750f, -0.042853f, -0.203597f, -0.122074f, 0.189081f, -0.157084f, 0.076168f, -0.055841f, 0.320865f, -0.079449f, 0.186837f, -0.152389f, -0.242183f, -0.111919f, 0.084107f, 0.075825f, -0.153725f, 0.045419f, -0.065037f, 0.054563f, 0.306161f, 0.284526f, 0.232979f, -0.018236f, -0.123900f, -0.273066f, -0.202206f, -0.189260f, 0.183194f, -0.179609f, -0.191795f, 0.083793f, 0.212107f, -0.368349f, -0.191698f, -0.221095f, -0.156681f, -0.103451f, -0.229378f, -0.109878f, 0.073209f, 0.271373f, -0.216861f, 0.051020f, -0.083205f, 0.072404f, 0.113184f, -0.113211f, 0.268631f, 0.171012f, 0.115403f, 0.111430f, 0.266179f, -0.314384f, -0.178995f, 0.250551f, 0.168013f, -0.285667f, -0.257001f, -0.098593f, 0.105745f, -0.190559f, -0.313990f, -0.096733f, -0.085452f, -0.267903f, 0.118696f, -0.052828f, 0.081101f, 0.284021f, -0.019042f, -0.071479f, -0.238578f, 0.160273f, 0.290433f, 0.224932f, 0.144291f, 0.299303f, -0.075484f, 0.350929f, 0.292519f, 0.189721f, -0.197499f, -0.074848f, -0.085643f, 0.003615f, -0.256592f, -0.161456f, 0.246566f, -0.233837f, -0.274622f, 0.081110f, 0.120065f, 0.066518f, -0.216237f, 0.078702f, 0.106729f, 0.235277f, 0.009032f, -0.233721f, -0.142690f, 0.175580f, 0.118196f, -0.313503f, -0.093592f, 0.303787f, -0.171645f, 0.149568f, 0.136834f, -0.242350f, -0.115209f, -0.155425f, 0.121079f, -0.173713f, 0.073880f, -0.144789f, 0.233594f, -0.173932f, 0.236494f, -0.230902f, -0.105914f, 0.161987f, 0.112035f, 0.055602f, 0.036598f, -0.088595f, -0.120041f, 0.170148f, 0.079547f, -0.204940f, -0.123138f, -0.141536f, 0.053230f, 0.270836f, -0.178424f, 0.086954f, -0.052340f, -0.226676f, 0.029447f, 0.044777f, -0.077065f, -0.285768f, -0.129010f, -0.216505f, 0.129215f, 0.128790f, -0.017853f, 0.103949f, -0.033132f, -0.080583f, 0.195755f, 0.140875f, -0.246622f, 0.261626f, 0.056289f, -0.342110f, 0.251123f, -0.149606f, -0.079295f, 0.345599f, -0.336085f, -0.000234f, 0.345168f, -0.134367f, -0.175367f, -0.261876f, 0.054191f, -0.117611f, 0.024858f, 0.121475f, -0.225154f, 0.054857f, 0.217427f, 0.066402f, -0.005817f, 0.190399f, -0.175630f, -0.120009f, -0.053021f, -0.192112f, 0.219945f, -0.147068f, -0.036314f, -0.211289f, -0.175661f, 0.220106f, -0.148942f, -0.297367f, -0.084963f, -0.110642f, -0.061223f, 0.175019f, 0.047512f, -0.249115f, 0.269069f, -0.278713f, -0.192190f, -0.047301f, 0.038356f, -0.228605f, 0.130074f, 0.050506f, 0.278038f, -0.211165f, 0.180152f, -0.109360f, -0.112591f, -0.122211f, -0.004036f, 0.149076f, -0.279750f, 0.186694f, -0.205139f, 0.064374f, -0.215502f, 0.224039f, 0.014466f, -0.232654f, -0.036285f, -0.097323f, -0.280845f, 0.170507f, -0.075185f, -0.010254f, 0.170458f, 0.126609f, 0.166085f, -0.103148f, 0.171707f, -0.152504f, -0.074841f, 0.091536f, -0.212101f, -0.116071f, -0.088565f, -0.073870f, 0.205879f, -0.001982f, -0.353485f, 0.027538f, -0.103223f, 0.178688f, -0.276964f, 0.024061f, 0.214911f, 0.057143f, 0.100837f, 0.152817f, 0.225747f, -0.157871f, -0.156167f, -0.022404f, 0.037308f, 0.218779f, -0.178629f, 0.237943f, 0.105326f, -0.067135f, -0.052225f, -0.081279f, -0.287442f, 0.233811f, 0.222220f, 0.105095f, 0.063331f, 0.254885f, 0.219156f, -0.282379f, 0.073397f, -0.005078f, 0.240767f, 0.126621f, -0.264939f, -0.149481f, 0.242601f, -0.025312f, 0.181536f, 0.101492f, 0.197633f, 0.152600f, 0.095804f, 0.129046f, 0.054343f, -0.214503f, -0.229345f, -0.313817f, -0.230256f, 0.294009f, -0.116751f, 0.114436f, -0.315471f, -0.313657f, -0.092613f, -0.011697f, 0.234643f, -0.003297f, 0.204453f, -0.017563f, -0.297075f, -0.196668f, -0.200014f, -0.105487f, -0.157057f, -0.269196f, -0.239568f, -0.167735f, -0.292761f, -0.204567f, -0.036793f, 0.307254f, 0.200646f, 0.156044f, -0.034999f, -0.053427f, -0.113235f, -0.009366f, -0.241467f, 0.295263f, -0.287774f, 0.334550f, -0.007804f, 0.240156f, 0.033424f, 0.150728f, 0.114596f, -0.360421f, -0.114174f, 0.059425f, 0.309702f, 0.279318f, -0.305271f, 0.013120f, 0.098632f, -0.174607f, -0.275289f, 0.074161f, 0.293299f, 0.306637f, -0.043576f, -0.098162f, -0.222053f, -0.005119f, -0.078353f, -0.299236f, -0.301853f, -0.250600f, -0.128929f, 0.110538f, -0.229209f, 0.159498f, 0.152095f, 0.267181f, 0.287821f, 0.249004f, 0.124964f, 0.253447f, -0.130703f, 0.261804f, -0.030672f, -0.002802f, -0.163912f, 0.221699f, -0.236440f, -0.076618f, -0.203588f, 0.120742f, -0.246691f, -0.147374f, 0.224324f, 0.181674f, -0.229372f, -0.290062f, -0.264710f, -0.205302f, 0.100159f, 0.055524f, 0.157572f, -0.183858f, 0.049453f, 0.027713f, -0.124901f, 0.034479f, -0.019705f, 0.215394f, -0.312815f, 0.296249f, 0.304526f, -0.285878f, -0.226962f, -0.121933f, 0.074971f, 0.018993f, 0.017745f, -0.107388f, -0.004793f, 0.024396f, 0.040950f, 0.041593f, 0.105425f, 0.029575f, -0.177357f, -0.063952f, -0.199738f, -0.284729f, -0.322022f, -0.112015f, -0.014024f, 0.190951f, -0.089591f, -0.011043f, -0.087506f, -0.222653f, 0.154353f, 0.002368f, -0.035907f, 0.018088f, -0.102526f, -0.126852f, -0.137406f, 0.289219f, -0.128514f, -0.345277f, 0.091099f, -0.021530f, -0.133869f, 0.200664f, 0.145060f, 0.059349f, 0.196120f, 0.052097f, -0.313241f, -0.257834f, -0.122126f, 0.300011f, -0.208920f, -0.115525f, -0.076279f, -0.227070f, -0.270909f, 0.118051f, 0.008410f, -0.047709f, -0.275764f, -0.194331f, 0.028843f, -0.054097f, -0.026063f, 0.232038f, -0.125273f, -0.062695f, 0.118264f, -0.310846f, 0.165878f, -0.095450f, -0.103069f, -0.269317f, -0.069688f, -0.157609f, -0.255460f, 0.063820f, -0.048092f, 0.270966f, 0.282348f, -0.248198f, -0.265429f, -0.070949f, 0.263351f, 0.230803f, -0.238932f, -0.276089f, 0.184645f, 0.138569f, -0.034075f, -0.212750f, -0.195644f, -0.272640f, 0.240404f, -0.235673f, -0.194430f, -0.311443f, -0.300605f, -0.154271f, -0.211463f, 0.041844f, 0.234228f, 0.199187f, 0.118169f, 0.134053f, -0.196832f, 0.171668f, 0.244473f, 0.297804f, -0.149489f, -0.058276f, 0.065487f, 0.018151f, 0.276018f, -0.210659f, -0.303045f, -0.181387f, 0.256865f, -0.036340f, -0.105662f, -0.324298f, -0.170821f, -0.035799f, -0.301741f, 0.153884f, -0.185367f, 0.128051f, 0.193116f, 0.198824f, -0.079640f, 0.110516f, -0.195633f, -0.200931f, 0.243147f, 0.154244f, 0.005469f, -0.177212f, -0.024283f, 0.037317f, 0.225979f, -0.330168f, -0.058393f, 0.015897f, 0.086486f, 0.005203f, -0.121152f, -0.051639f, -0.246810f, 0.006115f, -0.363523f, -0.102079f, -0.218657f, 0.127299f, -0.237411f, -0.320250f, -0.080822f, -0.316960f, 0.187598f, 0.080976f, 0.301751f, -0.191405f, 0.196652f, -0.043703f, -0.281119f, -0.298866f, 0.177645f, -0.295345f, -0.204927f, -0.069147f, -0.181673f, 0.304915f, -0.252029f, -0.255468f, -0.128067f, -0.004016f, -0.263472f, 0.079595f, -0.197236f, 0.099310f, -0.264683f, 0.308297f, 0.209974f, -0.027893f, 0.078784f, -0.206733f, -0.185543f, -0.293588f, -0.306694f, -0.026098f, 0.135378f, -0.091219f, -0.269817f, 0.165455f, -0.211965f, -0.127418f, -0.102034f, -0.003235f, 0.207859f, -0.087306f, 0.321560f, -0.217252f, -0.391758f, 0.038075f, 0.189407f, -0.195876f, 0.075768f, 0.009354f, -0.287199f, -0.139213f, -0.070828f, 0.143427f, 0.015605f, -0.033731f, -0.070648f, 0.268420f, 0.056961f, 0.245759f, 0.175693f, -0.090348f, -0.311861f, -0.288193f };
static const float weather_forecast_layer_6_biases[30] = { -0.019331f, 0.040113f, 0.038994f, -0.029996f, 0.008164f, -0.063943f, -0.042569f, -0.012042f, -0.049457f, -0.024666f, -0.013754f, -0.007833f, -0.034931f, -0.059499f, -0.034368f, -0.038327f, -0.018487f, -0.046588f, -0.022763f, -0.028367f, 0.032242f, 0.026942f, -0.044366f, 0.000000f, -0.080138f, -0.057132f, 0.073160f, 0.031605f, 0.000000f, -0.055966f };
static const float weather_forecast_layer_6_weights[900] = { -0.221694f, 0.051046f, 0.296244f, -0.053561f, -0.086085f, -0.300478f, 0.224757f, -0.094147f, -0.259615f, -0.294640f, -0.292712f, 0.049869f, 0.255462f, -0.101667f, 0.055136f, -0.124627f, -0.219413f, -0.178470f, 0.126823f, -0.000380f, 0.268739f, -0.067567f, 0.162545f, -0.007442f, 0.078185f, -0.321224f, -0.305313f, -0.041868f, -0.254458f, -0.367674f, 0.198460f, -0.188785f, 0.238960f, -0.397386f, -0.256182f, 0.243607f, -0.358748f, -0.242390f, -0.224355f, -0.263643f, 0.214268f, 0.063270f, -0.021149f, 0.007790f, -0.364187f, 0.042633f, -0.291478f, 0.016299f, -0.175413f, -0.077520f, -0.185969f, -0.143097f, -0.171264f, -0.033800f, -0.263183f, -0.332071f, 0.262059f, -0.383479f, -0.248598f, 0.171781f, 0.117680f, -0.107412f, -0.081064f, 0.012669f, -0.260448f, -0.181079f, 0.111618f, 0.087788f, 0.201180f, -0.237031f, -0.031137f, -0.214463f, 0.284032f, 0.030133f, 0.059163f, 0.194477f, -0.292834f, -0.004786f, -0.269041f, 0.315758f, -0.165100f, -0.238607f, 0.077443f, -0.043602f, 0.091344f, -0.039668f, 0.287621f, 0.009867f, -0.072724f, 0.133929f, 0.001205f, 0.120729f, 0.189859f, -0.086368f, 0.067934f, -0.128948f, -0.042463f, -0.151793f, -0.093007f, -0.273203f, 0.173732f, 0.124178f, -0.041779f, 0.129496f, 0.006063f, 0.131881f, 0.289631f, -0.339334f, -0.121845f, 0.216890f, 0.265493f, -0.084018f, 0.179148f, 0.259538f, -0.251315f, -0.289084f, 0.153416f, 0.326331f, -0.077213f, 0.041435f, 0.256644f, -0.212450f, 0.262424f, -0.020607f, -0.311747f, -0.302493f, 0.054415f, 0.303661f, -0.120768f, 0.013904f, 0.191924f, -0.166947f, 0.013191f, -0.140008f, 0.282645f, -0.088120f, -0.083905f, -0.059549f, 0.168099f, -0.093701f, 0.044511f, 0.165664f, 0.018802f, -0.053927f, -0.117354f, -0.200756f, -0.198408f, -0.293635f, 0.199627f, -0.176392f, 0.175374f, -0.184816f, 0.013172f, 0.091669f, 0.225746f, 0.021462f, 0.037089f, 0.178053f, 0.024616f, -0.164171f, 0.130492f, 0.062333f, 0.116014f, 0.114855f, 0.148663f, -0.100591f, 0.090677f, 0.145899f, -0.189788f, 0.187220f, 0.066173f, -0.087380f, 0.016159f, -0.261136f, 0.084517f, 0.022834f, 0.213415f, -0.065382f, -0.190509f, -0.249520f, 0.251849f, 0.040555f, 0.092103f, -0.305959f, -0.059605f, -0.062027f, 0.095598f, -0.006554f, 0.282470f, -0.175490f, -0.357430f, 0.192332f, -0.060782f, 0.022488f, -0.217557f, -0.322670f, 0.156745f, 0.019735f, 0.229188f, 0.141546f, -0.152203f, -0.113533f, -0.207229f, -0.083393f, 0.249068f, -0.044692f, -0.243686f, -0.215488f, -0.270738f, 0.036866f, 0.041439f, 0.181885f, 0.188214f, 0.046543f, -0.053688f, -0.087637f, -0.030846f, 0.075732f, -0.100500f, 0.219123f, 0.152572f, 0.097522f, 0.142972f, -0.150681f, -0.031631f, 0.040265f, -0.184411f, 0.165337f, -0.258782f, -0.338918f, 0.183520f, 0.170872f, -0.048241f, -0.021163f, -0.171315f, 0.256095f, -0.223307f, 0.025382f, -0.216703f, 0.213351f, 0.085261f, -0.018679f, -0.156582f, -0.156775f, 0.039806f, -0.276706f, 0.255497f, -0.069398f, -0.154543f, -0.071223f, 0.228466f, 0.040286f, -0.321284f, 0.199809f, -0.014574f, -0.119368f, 0.177994f, -0.111212f, 0.144998f, -0.284257f, -0.209246f, 0.138080f, 0.150721f, -0.176516f, -0.268565f, 0.009004f, -0.032426f, -0.300318f, -0.284728f, -0.299996f, -0.162114f, -0.111359f, 0.201177f, -0.196033f, -0.046467f, 0.088819f, -0.064545f, 0.239107f, 0.094327f, 0.203182f, 0.119561f, 0.124312f, 0.079800f, -0.168678f, -0.306244f, 0.228342f, -0.181712f, 0.004900f, 0.290115f, 0.194780f, 0.282778f, 0.282295f, 0.175348f, -0.104128f, -0.216739f, -0.091600f, 0.176230f, 0.133692f, -0.053187f, 0.135814f, -0.161623f, 0.129199f, -0.035860f, -0.306298f, -0.306896f, 0.098638f, 0.019663f, -0.048013f, 0.247734f, 0.190375f, 0.333192f, -0.167866f, 0.200161f, -0.383104f, -0.268035f, -0.317163f, -0.065534f, -0.008652f, -0.085683f, -0.016010f, -0.036361f, 0.286611f, 0.225635f, -0.300763f, -0.220651f, -0.116441f, -0.064619f, 0.145526f, -0.001177f, 0.263404f, -0.134326f, 0.335327f, 0.162369f, 0.262666f, -0.097551f, 0.064157f, 0.156653f, -0.151859f, -0.162699f, 0.216807f, -0.206011f, -0.131369f, 0.058460f, -0.204289f, 0.284036f, -0.177806f, -0.250759f, 0.039157f, 0.031202f, -0.059515f, -0.091191f, -0.095792f, -0.056912f, -0.113681f, -0.307678f, -0.277492f, 0.281088f, 0.250524f, -0.000737f, 0.111945f, -0.081357f, 0.243598f, -0.149847f, 0.244494f, 0.009925f, -0.182640f, 0.096754f, -0.156662f, 0.163163f, -0.235773f, -0.338847f, -0.312589f, 0.183155f, 0.076243f, 0.280836f, -0.216916f, -0.320985f, -0.046255f, -0.264341f, -0.115356f, 0.114667f, 0.074807f, -0.306403f, -0.233540f, 0.252143f, 0.127716f, 0.103058f, -0.204437f, -0.210562f, -0.237328f, -0.265965f, -0.134712f, 0.272516f, -0.171213f, 0.004004f, 0.030639f, 0.101641f, 0.094146f, -0.208917f, 0.155641f, 0.051424f, -0.000186f, 0.037694f, 0.035530f, -0.152717f, 0.193367f, 0.011407f, -0.026158f, -0.297951f, -0.012951f, 0.118604f, -0.160265f, -0.062639f, -0.302708f, -0.091156f, 0.209880f, -0.225763f, 0.245033f, 0.128215f, -0.298905f, 0.245385f, -0.247227f, -0.273121f, 0.143010f, -0.033767f, -0.034956f, 0.139816f, -0.104671f, 0.089730f, 0.272605f, -0.284913f, 0.314668f, -0.242821f, -0.289129f, 0.143636f, -0.127913f, 0.004651f, 0.231370f, 0.058905f, -0.179005f, -0.033591f, 0.012352f, -0.270291f, -0.113465f, 0.059674f, 0.024382f, 0.234846f, -0.298481f, 0.281329f, -0.250112f, 0.143930f, -0.163991f, 0.036031f, 0.220179f, 0.205927f, -0.023425f, 0.157139f, -0.158578f, 0.202920f, -0.009081f, -0.233825f, -0.026800f, -0.060255f, -0.085658f, 0.242427f, -0.002913f, -0.217825f, -0.014657f, 0.009720f, 0.103109f, -0.161922f, -0.009509f, 0.009577f, 0.239555f, 0.187855f, 0.142804f, -0.002901f, 0.005922f, 0.150697f, 0.097433f, 0.191637f, -0.122206f, 0.225133f, 0.218266f, -0.185929f, 0.303644f, 0.036945f, 0.063680f, -0.145552f, 0.139309f, -0.339378f, 0.121374f, 0.300224f, -0.177426f, 0.107128f, -0.313307f, 0.184637f, 0.190423f, 0.133845f, 0.162098f, -0.196758f, -0.163349f, 0.107401f, -0.202758f, -0.161523f, -0.026685f, -0.208688f, -0.010423f, -0.196415f, -0.119254f, -0.066941f, -0.274601f, 0.078535f, 0.232897f, 0.011802f, -0.290734f, 0.035548f, 0.041648f, -0.103058f, -0.193210f, 0.127855f, 0.230014f, 0.030640f, 0.084179f, 0.061709f, -0.125168f, 0.034768f, -0.112006f, 0.222357f, -0.242787f, -0.277937f, 0.074079f, 0.160039f, -0.151122f, -0.254984f, 0.036144f, 0.164550f, 0.095414f, 0.195136f, 0.188560f, -0.146961f, -0.131360f, 0.275465f, -0.306442f, -0.231926f, 0.178017f, -0.269429f, 0.210200f, -0.198722f, 0.064770f, 0.079140f, -0.159859f, 0.018580f, 0.004717f, 0.231795f, -0.138719f, 0.093519f, 0.196106f, 0.258562f, -0.006256f, -0.086308f, -0.006458f, 0.184418f, 0.042637f, -0.199634f, 0.002748f, 0.037107f, 0.108431f, -0.056650f, -0.039039f, 0.032224f, 0.027264f, 0.009312f, -0.277450f, -0.170066f, -0.302529f, -0.004509f, -0.308341f, 0.314791f, 0.160349f, -0.312374f, -0.184633f, 0.056516f, -0.186697f, 0.120231f, -0.313511f, -0.270775f, -0.111957f, 0.199168f, -0.112720f, -0.190575f, -0.102883f, -0.227224f, -0.069656f, -0.289664f, 0.127698f, -0.304813f, -0.243700f, 0.126831f, -0.128796f, -0.008679f, -0.030458f, -0.167740f, -0.309535f, 0.046351f, 0.253631f, 0.196483f, -0.073465f, 0.279720f, 0.058651f, -0.301420f, 0.102665f, 0.199698f, 0.241382f, -0.312223f, -0.063459f, 0.100819f, -0.076075f, -0.229942f, -0.030499f, -0.078216f, -0.315324f, 0.190925f, -0.164724f, -0.039471f, 0.290814f, -0.278762f, -0.208809f, 0.177248f, -0.034728f, 0.205021f, 0.109867f, -0.054082f, -0.358876f, -0.241439f, -0.035661f, 0.185632f, 0.177198f, 0.142960f, -0.276893f, -0.198711f, -0.277792f, 0.051914f, -0.181103f, 0.159776f, 0.025729f, -0.316235f, -0.149539f, 0.226778f, 0.235897f, 0.038234f, 0.221599f, 0.087132f, -0.230401f, -0.012526f, -0.078639f, -0.012978f, -0.242665f, -0.208002f, 0.000543f, 0.073237f, 0.247118f, 0.324263f, -0.085636f, 0.311223f, 0.286185f, 0.262711f, 0.158878f, -0.002175f, -0.218701f, -0.180706f, -0.255859f, -0.272682f, -0.294432f, -0.019954f, 0.208725f, 0.145950f, -0.112293f, -0.180031f, -0.159208f, 0.220745f, -0.173610f, -0.246667f, 0.046780f, 0.072635f, -0.134834f, -0.000744f, 0.248821f, -0.130108f, 0.145752f, 0.005157f, 0.032947f, -0.145569f, 0.240692f, 0.194853f, -0.026309f, -0.137333f, -0.003138f, 0.123534f, 0.065332f, -0.016939f, 0.009630f, -0.353125f, 0.073141f, 0.005390f, 0.145314f, -0.125516f, -0.247302f, 0.259619f, 0.140233f, 0.193386f, 0.162623f, 0.139365f, -0.300991f, 0.066413f, 0.209159f, -0.198437f, 0.037775f, 0.158667f, -0.178957f, -0.300125f, -0.102044f, 0.267435f, -0.105394f, -0.117274f, -0.084523f, -0.163040f, 0.276715f, -0.054049f, -0.063616f, 0.226139f, 0.105902f, 0.217863f, 0.193496f, -0.217132f, 0.154727f, -0.119652f, -0.143615f, -0.216516f, 0.105068f, -0.127444f, 0.057076f, -0.030317f, 0.044394f, 0.264810f, -0.272571f, 0.100759f, -0.052193f, -0.294807f, -0.260986f, -0.072196f, 0.363863f, -0.179460f, -0.331478f, 0.179249f, -0.121646f, 0.027953f, -0.184826f, 0.124899f, 0.026358f, 0.261534f, 0.100477f, -0.227385f, -0.095651f, 0.136502f, 0.109120f, 0.179488f, -0.280017f, -0.040130f, 0.074099f, 0.124404f, -0.036122f, 0.132306f, -0.013373f, -0.033660f, -0.322648f, 0.022064f, 0.005818f, -0.213854f, 0.245759f, 0.264931f, -0.244302f, 0.195783f, -0.088974f, -0.218273f, -0.319359f, -0.127360f, -0.316713f, -0.113938f, 0.227462f, -0.046238f, 0.125028f, -0.047565f, 0.154061f, 0.005774f, 0.066401f, -0.038687f, -0.015038f, -0.179110f, -0.285574f, -0.176415f, -0.208769f, -0.257179f, 0.097083f, -0.225343f, -0.210555f, -0.225219f, 0.067911f, 0.219199f, -0.066583f, -0.104977f, 0.109802f, 0.337759f, -0.076210f, -0.185734f, -0.376166f, 0.245522f, 0.271881f, -0.339594f, 0.024379f, 0.231545f, -0.043539f, -0.223775f, -0.322983f, -0.039986f, 0.146635f, -0.215269f, 0.264997f, -0.011505f, -0.070091f, -0.231086f, -0.231155f, 0.162353f, 0.256002f, -0.064775f, 0.218250f, 0.359059f, 0.025445f, 0.256822f, -0.325739f, 0.239112f, 0.175321f, 0.279403f, -0.000945f, -0.311359f, 0.276978f, -0.152901f, 0.174184f, 0.257166f, -0.041995f, -0.109597f, -0.209845f, -0.021016f, -0.274323f, -0.245034f, -0.252843f, 0.284521f, -0.087760f, 0.331447f, 0.232976f, -0.025921f, -0.125802f, 0.124532f, 0.086101f, -0.162100f, -0.220558f, 0.169227f, 0.106820f, -0.077223f, 0.297795f, -0.044975f, 0.311261f, 0.286450f, -0.058950f, -0.205823f, -0.036646f, -0.245364f, -0.124459f, -0.314788f, 0.089708f, -0.053625f, -0.278217f, -0.352963f, 0.066057f, -0.251142f, -0.017278f, 0.222684f, 0.164511f, -0.045244f, -0.260145f, 0.136155f, -0.154903f, -0.183638f, -0.023724f, 0.336983f, -0.026762f, -0.125054f, 0.205808f, -0.184982f, -0.260590f };
static const float weather_forecast_layer_7_biases[30] = { -0.033813f, 0.025524f, -0.026335f, -0.041557f, 0.050178f, -0.022402f, -0.016740f, -0.071954f, -0.046242f, -0.014570f, -0.043042f, -0.013482f, 0.065304f, -0.009833f, -0.077262f, 0.124531f, 0.040399f, 0.002614f, -0.028337f, -0.056556f, -0.001229f, 0.065608f, -0.062344f, 0.021271f, -0.084492f, -0.071266f, -0.104686f, 0.027556f, 0.088589f, 0.042765f };
static const float weather_forecast_layer_7_weights[900] = { -0.179957f, -0.231610f, -0.131734f, -0.036468f, 0.189708f, -0.020448f, -0.009814f, -0.008448f, 0.115467f, -0.148144f, -0.031197f, 0.176425f, -0.125525f, -0.016488f, 0.228770f, -0.091425f, 0.288664f, -0.084564f, 0.226405f, -0.111699f, -0.065567f, -0.112314f, -0.076938f, 0.171655f, 0.024044f, 0.130826f, -0.476002f, 0.248955f, -0.126415f, 0.039103f, 0.206571f, 0.282979f, -0.141927f, 0.211902f, -0.098872f, 0.034937f, 0.047965f, -0.304759f, -0.288308f, -0.029786f, 0.212229f, -0.107284f, 0.304400f, 0.294279f, 0.209269f, 0.017719f, 0.258004f, 0.145836f, 0.341016f, 0.191596f, -0.146247f, 0.235777f, 0.078353f, 0.144129f, -0.078266f, -0.191203f, -0.000850f, 0.051000f, -0.026379f, -0.001059f, -0.112649f, -0.281006f, 0.059917f, -0.139969f, 0.296401f, 0.024255f, -0.266038f, 0.201458f, -0.150661f, 0.302696f, -0.048827f, -0.221911f, -0.209337f, -0.153182f, -0.012820f, 0.225152f, 0.309763f, 0.290337f, -0.243565f, 0.042075f, 0.162423f, 0.098754f, -0.039353f, 0.116252f, -0.006724f, 0.100689f, 0.195831f, 0.031263f, 0.187662f, 0.006730f, -0.142441f, -0.121404f, 0.273135f, -0.288133f, -0.137809f, -0.262597f, -0.185010f, 0.212035f, -0.173781f, 0.070102f, -0.360667f, 0.091995f, 0.127039f, -0.162023f, 0.192382f, 0.222291f, -0.026988f, -0.123180f, 0.049658f, -0.279152f, -0.299147f, 0.131058f, 0.132309f, 0.190984f, -0.085097f, -0.081138f, -0.250505f, -0.228147f, -0.189137f, 0.003600f, -0.024331f, -0.074473f, -0.269035f, 0.203198f, 0.215180f, 0.040528f, -0.047330f, -0.159871f, 0.002720f, 0.145730f, -0.184847f, -0.076820f, 0.300320f, 0.094719f, 0.028732f, 0.152590f, 0.005066f, -0.009407f, -0.262612f, -0.068469f, -0.121060f, 0.282697f, -0.199668f, 0.082472f, 0.314141f, -0.054143f, -0.071192f, 0.018028f, 0.198191f, 0.176113f, -0.304924f, -0.026333f, -0.174239f, 0.212335f, 0.016606f, -0.066408f, 0.262634f, 0.116787f, -0.150618f, -0.201619f, 0.052123f, 0.221952f, 0.274504f, -0.107102f, -0.339604f, -0.237000f, -0.009073f, -0.161512f, -0.232524f, -0.303264f, 0.069550f, -0.179787f, -0.084824f, -0.141369f, 0.238527f, -0.033856f, -0.027119f, 0.189910f, -0.004181f, 0.048276f, 0.196310f, -0.102155f, 0.208318f, 0.208071f, -0.043533f, -0.195718f, 0.241774f, 0.304832f, -0.237655f, -0.052923f, -0.200726f, 0.263038f, -0.162950f, 0.206087f, 0.267058f, -0.211096f, -0.141897f, 0.312065f, 0.278574f, 0.014996f, 0.044002f, 0.028447f, 0.153882f, -0.129360f, 0.004640f, -0.146099f, -0.258431f, 0.249828f, 0.263267f, 0.071525f, 0.103351f, -0.278956f, 0.138968f, -0.128351f, -0.299661f, 0.071527f, 0.172506f, -0.103398f, -0.212267f, -0.250932f, -0.080187f, -0.126428f, -0.147648f, -0.185719f, 0.061297f, -0.296438f, -0.004660f, -0.254434f, 0.159833f, 0.282903f, 0.245872f, 0.056130f, -0.047107f, 0.278523f, -0.296330f, 0.195380f, -0.272517f, -0.011708f, 0.015329f, 0.337552f, 0.227007f, 0.046526f, 0.246703f, -0.090643f, -0.054602f, 0.185171f, -0.132098f, 0.117027f, 0.042984f, 0.267851f, 0.232097f, -0.057961f, -0.082587f, -0.106660f, 0.298224f, 0.027990f, 0.071988f, -0.095011f, -0.021548f, 0.367580f, 0.308493f, -0.103144f, 0.219262f, 0.256024f, 0.054147f, 0.111415f, -0.219564f, -0.015996f, -0.254556f, -0.246396f, -0.029807f, 0.057127f, 0.050849f, -0.315716f, 0.064286f, 0.247735f, -0.053962f, -0.264542f, -0.113754f, -0.124887f, 0.157617f, -0.272071f, 0.285846f, 0.006577f, -0.013825f, 0.223112f, -0.109677f, -0.299078f, 0.077946f, 0.219974f, 0.273150f, 0.021984f, -0.214460f, 0.287795f, -0.111954f, 0.144066f, -0.177086f, 0.033157f, 0.255142f, 0.116151f, 0.174304f, -0.023173f, -0.176454f, 0.158560f, 0.169699f, 0.140582f, 0.226405f, 0.138752f, 0.036405f, 0.205666f, 0.045007f, -0.214417f, 0.285490f, 0.024373f, -0.230664f, 0.237898f, -0.209137f, 0.084561f, -0.157564f, -0.072962f, 0.156448f, 0.022845f, 0.354476f, -0.266959f, 0.157725f, -0.135111f, -0.008728f, -0.081030f, 0.145640f, 0.190349f, 0.306839f, 0.274979f, 0.134161f, -0.022857f, 0.037281f, 0.037699f, 0.182339f, -0.001602f, -0.080843f, 0.012732f, -0.223952f, -0.042207f, 0.160032f, -0.235443f, 0.226899f, 0.030125f, -0.025203f, 0.238247f, -0.179314f, 0.034456f, -0.099938f, 0.204582f, -0.110423f, -0.059726f, 0.093880f, -0.141433f, 0.040050f, 0.066987f, 0.285099f, 0.306685f, 0.256406f, -0.157842f, 0.120069f, -0.238368f, -0.092532f, 0.250012f, 0.222430f, 0.076362f, -0.121048f, -0.066091f, 0.201014f, -0.306021f, -0.269386f, -0.085159f, 0.202080f, -0.254840f, 0.036712f, -0.063904f, -0.004884f, -0.240480f, 0.257393f, -0.178483f, -0.295173f, 0.264028f, 0.109379f, -0.157676f, 0.186371f, -0.071275f, -0.193145f, -0.205004f, -0.293228f, -0.220477f, 0.194089f, -0.328283f, -0.118197f, -0.258614f, -0.223852f, 0.003039f, -0.082287f, 0.249839f, -0.170875f, -0.278255f, -0.216735f, -0.031683f, 0.113952f, 0.029152f, -0.322824f, -0.162887f, 0.189558f, -0.225712f, -0.024507f, -0.084998f, -0.116941f, -0.369374f, -0.116797f, -0.162573f, 0.011037f, 0.206209f, -0.127887f, -0.037803f, 0.053673f, -0.185983f, 0.247310f, -0.339025f, -0.297797f, -0.217006f, 0.338891f, 0.309890f, -0.144958f, -0.147364f, -0.039612f, -0.107814f, 0.123774f, 0.207001f, -0.004332f, 0.277382f, -0.248032f, 0.183979f, -0.300402f, -0.083257f, -0.073560f, 0.273670f, -0.031639f, 0.077900f, -0.197555f, 0.036408f, -0.005762f, -0.219609f, -0.196313f, 0.163353f, -0.180917f, -0.278412f, 0.132651f, 0.017494f, -0.292280f, -0.104747f, -0.004914f, 0.064168f, -0.237321f, -0.143073f, -0.112579f, -0.238419f, -0.051962f, -0.171758f, 0.075598f, 0.019777f, -0.053010f, -0.014716f, -0.266967f, 0.045847f, -0.018802f, -0.021622f, -0.121673f, -0.108985f, 0.133012f, 0.061309f, -0.265097f, -0.057225f, -0.157545f, 0.163581f, -0.061948f, 0.281230f, -0.081024f, -0.168575f, 0.085992f, -0.123679f, -0.311721f, 0.007368f, -0.077270f, 0.219193f, -0.332527f, -0.147952f, -0.117519f, -0.125244f, -0.120481f, -0.153689f, 0.114433f, 0.115628f, 0.069763f, 0.336010f, 0.099425f, 0.201988f, 0.031884f, -0.319897f, -0.147219f, -0.003340f, 0.122872f, 0.028807f, -0.297057f, 0.210260f, -0.063872f, -0.271367f, 0.262439f, 0.077379f, -0.084632f, 0.038714f, 0.262314f, -0.292596f, 0.160399f, 0.159462f, -0.087552f, 0.052321f, -0.068616f, 0.261748f, 0.259193f, 0.002756f, 0.300793f, 0.121135f, -0.159831f, -0.311382f, 0.198974f, -0.272975f, -0.014039f, -0.114485f, -0.019959f, -0.045563f, -0.095803f, -0.116379f, 0.005893f, -0.048876f, -0.297532f, -0.315155f, 0.151051f, 0.074066f, -0.124051f, -0.117834f, -0.234094f, 0.135395f, 0.142384f, -0.311908f, 0.147734f, 0.119461f, 0.120837f, 0.068921f, 0.204618f, -0.080288f, -0.175691f, 0.179920f, -0.069183f, -0.268920f, 0.057747f, 0.097656f, 0.024832f, 0.125995f, -0.377820f, 0.060856f, 0.171185f, -0.263566f, 0.247225f, 0.016288f, -0.199926f, 0.163508f, -0.288446f, 0.221011f, -0.090888f, -0.005381f, -0.108530f, 0.015300f, 0.315625f, 0.179078f, -0.264426f, -0.128427f, -0.245868f, 0.069911f, 0.215953f, -0.015572f, 0.156098f, -0.024541f, -0.152756f, -0.020731f, 0.003308f, 0.165724f, -0.067617f, 0.146021f, 0.073720f, -0.108808f, -0.069868f, 0.234219f, 0.169012f, -0.139875f, -0.055139f, 0.270252f, 0.212638f, 0.315443f, 0.252363f, -0.141912f, 0.233550f, -0.149237f, -0.064183f, 0.162430f, -0.091190f, -0.251574f, 0.355364f, -0.109864f, -0.058955f, -0.121403f, 0.309406f, -0.113284f, -0.174013f, -0.209388f, 0.213712f, 0.131544f, -0.254570f, 0.165367f, 0.285444f, -0.130176f, 0.049671f, -0.056588f, 0.383516f, -0.079850f, -0.241457f, -0.159411f, -0.163131f, 0.085601f, -0.245764f, -0.005222f, 0.343776f, 0.058332f, 0.313976f, -0.069498f, -0.187379f, -0.249737f, 0.165484f, -0.152184f, 0.264507f, 0.305187f, 0.163073f, 0.092962f, 0.065344f, 0.285975f, -0.181558f, -0.330748f, -0.177063f, -0.148205f, 0.058994f, -0.265651f, -0.021560f, 0.201399f, -0.289629f, 0.244988f, -0.056774f, -0.113883f, -0.064231f, 0.139895f, -0.235658f, 0.020469f, 0.111141f, -0.179282f, -0.286209f, 0.082418f, 0.122532f, -0.162211f, -0.023681f, 0.273140f, 0.197483f, 0.250776f, -0.282312f, 0.189019f, 0.070367f, -0.034291f, -0.274994f, 0.092952f, -0.388815f, -0.119674f, -0.214440f, 0.145584f, 0.183570f, -0.144100f, -0.234871f, -0.126679f, 0.163608f, 0.219656f, 0.172837f, -0.201489f, -0.070059f, 0.126532f, -0.002045f, 0.202861f, -0.215125f, -0.169259f, 0.265072f, 0.094900f, 0.085297f, -0.245373f, 0.210740f, 0.269865f, -0.177003f, -0.059236f, -0.029802f, -0.039189f, -0.008940f, 0.004473f, 0.310779f, -0.000126f, -0.270207f, 0.055523f, -0.239156f, -0.019762f, -0.037452f, 0.116321f, 0.048636f, -0.072527f, 0.074420f, -0.146838f, -0.287924f, 0.119703f, -0.235423f, -0.231522f, -0.049535f, 0.267423f, -0.080146f, 0.079729f, -0.170550f, -0.290198f, 0.067093f, 0.158029f, 0.105129f, -0.239653f, 0.314041f, 0.319043f, -0.244007f, 0.252311f, 0.174712f, 0.108546f, 0.301012f, -0.235192f, 0.139592f, -0.296081f, -0.325369f, 0.202873f, 0.178175f, -0.169480f, 0.042374f, 0.188934f, -0.252340f, -0.093763f, 0.066564f, -0.087731f, -0.265607f, 0.245295f, 0.235542f, 0.124261f, 0.029489f, -0.203666f, 0.078349f, -0.223509f, 0.054580f, 0.198028f, -0.101470f, 0.048162f, -0.218780f, 0.029985f, -0.160887f, -0.036106f, -0.219476f, 0.068689f, 0.078773f, -0.024450f, 0.126819f, 0.051614f, -0.143657f, -0.213996f, -0.356441f, -0.210841f, 0.270336f, -0.281949f, 0.015294f, -0.247663f, 0.182762f, -0.254190f, -0.089554f, 0.092003f, -0.333469f, 0.201417f, 0.120904f, 0.000336f, 0.129581f, 0.237512f, 0.190696f, -0.087703f, -0.104732f, 0.270384f, 0.164055f, -0.046730f, 0.075347f, -0.153413f, 0.169874f, 0.333403f, 0.313583f, 0.237719f, 0.281175f, -0.021596f, -0.021575f, 0.149733f, -0.004647f, 0.012213f, 0.134341f, 0.099925f, -0.009347f, 0.176795f, -0.274541f, -0.264036f, -0.231995f, 0.323793f, 0.011339f, 0.196897f, -0.277724f, -0.061894f, -0.313362f, -0.209329f, 0.104412f, 0.252007f, 0.040914f, -0.205655f, -0.316439f, -0.178617f, -0.161816f, 0.286992f, -0.004915f, -0.049273f, -0.164366f, 0.272847f, 0.221220f, 0.003320f, 0.151312f, -0.045175f, -0.034606f, 0.172985f, -0.027982f, 0.091187f, 0.227668f, 0.176528f, 0.247149f, -0.258213f, 0.232664f, 0.093810f, -0.280227f, -0.133868f, -0.038257f, -0.052899f, 0.101585f, -0.005224f, 0.058062f, 0.244970f, 0.294089f, 0.055088f, -0.270753f, 0.028546f, 0.164413f, -0.131202f, 0.230158f, 0.234488f, -0.212907f, -0.274037f, -0.033682f, 0.206354f, -0.208011f, -0.255501f, -0.086684f, 0.232377f, -0.292794f, 0.289833f, -0.188944f, 0.152431f, 0.041955f, 0.095574f, -0.042511f, 0.072499f, -0.139407f, 0.178130f, 0.163471f, -0.269350f, -0.168828f, -0.124340f, 0.117694f, 0.306219f, 0.197154f, 0.271422f, 0.251744f, -0.097623f };
static const float weather_forecast_layer_8_biases[30] = { -0.021881f, 0.010122f, -0.050863f, -0.060589f, -0.089178f, -0.011563f, -0.041188f, 0.154096f, -0.007421f, -0.021605f, 0.033088f, -0.037958f, -0.001028f, -0.021405f, -0.009869f, -0.058212f, 0.074037f, -0.019557f, -0.023701f, -0.092999f, 0.034301f, -0.013323f, -0.030539f, -0.048056f, -0.012084f, 0.096771f, -0.004579f, -0.051629f, -0.090070f, -0.028926f };
static const float weather_forecast_layer_8_weights[900] = { -0.320260f, -0.002962f, 0.178336f, 0.170779f, 0.076503f, 0.271391f, 0.194424f, -0.155323f, -0.264330f, -0.085705f, 0.054667f, 0.259812f, 0.149826f, 0.077993f, -0.146647f, 0.291539f, 0.038037f, -0.019227f, 0.125006f, -0.121319f, -0.134284f, -0.086454f, 0.058945f, 0.095358f, 0.234038f, 0.210181f, -0.305447f, 0.154850f, 0.200357f, 0.145213f, -0.273441f, 0.203444f, -0.082331f, 0.245478f, 0.065180f, 0.043734f, -0.050861f, 0.120533f, 0.218536f, 0.269545f, 0.059879f, 0.034131f, -0.060604f, -0.207645f, 0.242454f, 0.093627f, 0.013345f, -0.112267f, -0.165162f, 0.170243f, 0.024067f, 0.065440f, -0.133942f, -0.001292f, -0.240197f, 0.174042f, 0.284814f, 0.054203f, -0.320529f, 0.018555f, 0.170096f, 0.230713f, 0.139004f, -0.117455f, 0.074013f, -0.148979f, 0.084775f, -0.113486f, -0.013016f, -0.281715f, -0.283714f, -0.217608f, 0.325230f, 0.103159f, 0.303437f, 0.243377f, -0.172807f, -0.053769f, 0.095643f, 0.144610f, 0.028956f, 0.081085f, -0.009931f, 0.258999f, -0.111080f, -0.110321f, 0.284779f, -0.322060f, 0.055417f, 0.155812f, 0.086058f, 0.124350f, 0.220067f, 0.232868f, 0.061347f, -0.138644f, -0.088837f, 0.167603f, -0.084585f, -0.025388f, 0.095120f, 0.285297f, -0.050060f, 0.134115f, 0.126755f, -0.281692f, -0.280938f, 0.068824f, -0.263553f, -0.222655f, -0.217868f, 0.259437f, -0.254905f, 0.132224f, -0.301934f, 0.336852f, -0.107926f, 0.226820f, -0.051683f, 0.112819f, -0.322459f, -0.159894f, -0.367277f, -0.333722f, 0.013828f, -0.357212f, -0.060434f, 0.263476f, 0.294965f, -0.029759f, 0.353006f, -0.314276f, 0.066344f, 0.111045f, -0.038987f, -0.018428f, 0.016968f, 0.080816f, -0.078213f, 0.069876f, -0.103979f, 0.040520f, -0.073559f, 0.246872f, -0.322810f, 0.148420f, -0.079110f, -0.019761f, 0.261018f, -0.014838f, 0.150653f, -0.238322f, 0.057135f, 0.026728f, 0.216239f, -0.294760f, 0.181490f, -0.117641f, -0.079059f, 0.258964f, -0.083554f, 0.274928f, 0.163025f, -0.013059f, 0.104367f, -0.204902f, -0.263850f, 0.152489f, 0.264203f, 0.243856f, 0.247596f, -0.198724f, -0.083419f, -0.005379f, 0.246406f, 0.052232f, 0.127723f, 0.150116f, 0.291048f, -0.263911f, -0.120374f, -0.292781f, -0.136613f, -0.191814f, -0.313192f, -0.209588f, 0.097038f, -0.268183f, -0.265093f, -0.288539f, 0.041666f, 0.091688f, 0.304291f, -0.045175f, -0.196759f, 0.145096f, -0.301816f, -0.290895f, 0.006141f, 0.174020f, -0.308917f, -0.065040f, 0.309015f, -0.208091f, -0.239173f, -0.199395f, -0.183812f, 0.039638f, -0.274055f, 0.003462f, 0.214834f, -0.057386f, 0.314158f, -0.365738f, 0.246161f, 0.284648f, -0.323462f, -0.233871f, 0.024991f, -0.086149f, -0.050169f, 0.193165f, -0.120015f, 0.236659f, 0.103303f, 0.241566f, 0.250475f, 0.045354f, -0.089145f, -0.032468f, -0.201743f, 0.302616f, 0.075759f, -0.167850f, 0.043916f, 0.029925f, 0.094248f, 0.104917f, -0.070321f, -0.246846f, 0.108600f, 0.164058f, 0.226048f, -0.166158f, 0.033351f, 0.081957f, -0.164115f, -0.145463f, 0.088469f, 0.251447f, -0.146494f, -0.083266f, -0.244559f, -0.202625f, -0.064393f, 0.167642f, 0.347109f, -0.319212f, 0.142534f, -0.106982f, 0.240432f, -0.283267f, 0.057576f, -0.155625f, 0.173174f, -0.135548f, -0.307468f, -0.126281f, 0.043828f, 0.069723f, 0.228642f, 0.223126f, -0.272965f, -0.161892f, 0.014687f, -0.302567f, 0.212124f, -0.088385f, -0.023695f, 0.264692f, -0.259363f, 0.250248f, -0.233792f, -0.296339f, -0.000988f, -0.019217f, 0.313041f, 0.270229f, -0.108088f, 0.233783f, -0.025840f, -0.256999f, 0.273215f, -0.068574f, -0.213257f, 0.194072f, -0.202236f, -0.234823f, -0.248934f, -0.214308f, 0.081662f, -0.151406f, -0.037060f, 0.190344f, -0.098686f, 0.104557f, 0.174109f, 0.185309f, 0.299785f, -0.012499f, -0.252485f, -0.125146f, 0.103018f, 0.220545f, 0.008372f, -0.242787f, -0.032920f, -0.308624f, 0.266662f, -0.270999f, -0.200571f, 0.148270f, -0.045637f, -0.263890f, 0.242537f, 0.266371f, -0.155469f, -0.264544f, 0.248116f, -0.275092f, -0.073270f, -0.072462f, -0.167633f, 0.160892f, 0.164743f, -0.148151f, 0.158677f, 0.125918f, -0.284084f, -0.032064f, -0.140108f, 0.111598f, -0.197982f, -0.247737f, -0.029658f, -0.247711f, 0.124976f, -0.102887f, -0.003298f, 0.065415f, -0.003591f, 0.302364f, 0.120820f, -0.108968f, 0.177647f, 0.205903f, 0.124866f, 0.183237f, 0.273315f, -0.291771f, 0.174978f, -0.186869f, 0.022689f, -0.271497f, 0.249492f, -0.190166f, 0.165064f, 0.121289f, 0.160970f, -0.233708f, 0.082237f, 0.319913f, 0.009781f, 0.271707f, 0.009903f, -0.277285f, 0.292915f, -0.194979f, 0.121200f, -0.036064f, -0.045128f, 0.008401f, -0.240161f, 0.076663f, 0.146207f, 0.183812f, -0.312817f, 0.218438f, 0.239636f, -0.245595f, 0.289275f, -0.109848f, -0.029539f, 0.179864f, -0.146919f, -0.245462f, 0.113378f, 0.351549f, 0.101987f, -0.223894f, -0.298688f, -0.030640f, -0.039937f, -0.232256f, 0.304688f, 0.282317f, 0.270397f, -0.387822f, -0.005034f, 0.176316f, 0.063302f, -0.019756f, 0.272958f, 0.068519f, 0.088678f, -0.192890f, -0.138548f, -0.116820f, 0.058886f, -0.141551f, 0.257003f, -0.055972f, -0.135444f, -0.039956f, -0.124476f, -0.037805f, 0.204661f, -0.202487f, -0.057123f, -0.265533f, 0.168302f, -0.191362f, 0.013793f, -0.186884f, -0.014473f, 0.243380f, -0.155181f, -0.327521f, -0.199867f, 0.107455f, -0.201691f, -0.220313f, -0.074916f, 0.095319f, 0.049420f, -0.267868f, 0.307169f, -0.071120f, 0.164895f, -0.099328f, -0.174142f, -0.105286f, 0.142007f, -0.072727f, -0.205015f, 0.142334f, -0.179615f, 0.353200f, 0.109798f, -0.254438f, -0.081802f, -0.143011f, -0.023678f, -0.123434f, 0.129358f, 0.008925f, 0.239544f, 0.256348f, 0.130390f, -0.380856f, 0.276671f, -0.249597f, -0.038337f, 0.031800f, 0.114966f, 0.218839f, 0.235992f, -0.086235f, 0.135424f, 0.149171f, -0.259461f, -0.185136f, 0.257272f, -0.164474f, -0.284179f, 0.074360f, -0.296180f, 0.413829f, -0.162567f, -0.217016f, 0.310702f, -0.149089f, -0.351745f, -0.265018f, -0.041049f, 0.145249f, 0.130171f, -0.193199f, -0.277592f, 0.159416f, 0.253791f, 0.008443f, -0.114501f, 0.145786f, -0.017190f, 0.236746f, -0.242494f, 0.099097f, -0.225874f, 0.142810f, 0.014154f, 0.181428f, 0.285834f, 0.047276f, -0.259333f, -0.147379f, -0.311333f, 0.003269f, -0.045671f, -0.360167f, -0.133614f, 0.219135f, -0.016910f, -0.234361f, 0.136352f, 0.079651f, 0.115393f, -0.009603f, 0.031053f, -0.118907f, 0.197347f, 0.167496f, 0.326021f, -0.308116f, -0.071484f, 0.041966f, -0.090266f, -0.170592f, -0.256434f, -0.275265f, 0.117507f, -0.232912f, -0.237717f, 0.068220f, 0.242777f, 0.071175f, -0.337209f, -0.072302f, 0.044142f, 0.244874f, -0.066998f, -0.033394f, -0.155747f, -0.212406f, -0.306393f, 0.237385f, -0.208243f, 0.191487f, -0.040334f, 0.282784f, -0.313953f, -0.022046f, -0.128772f, -0.189613f, 0.095875f, -0.105292f, -0.168467f, 0.161039f, -0.300396f, 0.050285f, -0.061118f, 0.065947f, -0.101327f, -0.320733f, 0.274718f, 0.250083f, 0.078671f, -0.142147f, -0.246658f, -0.223490f, -0.120384f, 0.094416f, 0.274667f, 0.307889f, -0.287271f, 0.201766f, 0.053978f, -0.206237f, 0.111146f, 0.076109f, -0.157890f, -0.109900f, -0.200184f, -0.320693f, 0.242661f, 0.136261f, 0.130582f, 0.247696f, 0.072999f, 0.132283f, 0.254055f, -0.086434f, 0.286315f, -0.302420f, -0.112268f, 0.214956f, -0.019639f, 0.301020f, -0.298907f, -0.288906f, -0.118502f, -0.301649f, -0.003155f, -0.252448f, 0.260596f, 0.314604f, -0.261709f, -0.039384f, -0.103013f, 0.068236f, 0.279484f, -0.155095f, -0.134512f, 0.216100f, -0.085729f, 0.229038f, 0.265056f, 0.204571f, -0.311116f, 0.178818f, 0.145518f, -0.157985f, -0.244867f, -0.307702f, 0.022278f, 0.042030f, 0.297058f, 0.183038f, 0.199276f, -0.040414f, 0.081189f, 0.047021f, -0.015952f, -0.283691f, 0.095032f, -0.217329f, -0.022258f, -0.033658f, -0.116213f, -0.207514f, 0.218828f, -0.225381f, -0.231956f, -0.235585f, -0.093212f, -0.182587f, 0.165242f, 0.178040f, -0.304958f, 0.131207f, 0.035214f, -0.247054f, -0.326933f, -0.154267f, 0.171782f, -0.163021f, 0.018197f, -0.076520f, -0.273206f, 0.037412f, 0.236013f, -0.372743f, 0.090652f, 0.303190f, 0.053501f, 0.066637f, -0.187121f, -0.177511f, -0.110249f, -0.291860f, 0.239097f, -0.220542f, -0.297729f, -0.249217f, -0.062440f, 0.068761f, -0.227859f, -0.206815f, -0.145962f, 0.274327f, 0.120790f, 0.129409f, -0.225913f, 0.196180f, 0.009766f, 0.225389f, 0.187989f, 0.273049f, -0.188273f, -0.288988f, 0.081001f, -0.063443f, 0.103712f, 0.161829f, 0.168308f, 0.184877f, -0.135947f, 0.147488f, -0.195455f, -0.006508f, 0.056831f, 0.010221f, 0.012198f, 0.009438f, 0.281210f, 0.268943f, -0.120375f, -0.232035f, 0.008114f, 0.343510f, -0.022323f, -0.088085f, 0.047146f, -0.026559f, -0.252112f, -0.218605f, 0.116930f, 0.280352f, -0.137197f, -0.105875f, 0.115105f, 0.157393f, 0.168207f, -0.135121f, 0.162691f, 0.008339f, -0.254802f, 0.048504f, -0.207831f, -0.317008f, 0.206884f, -0.093244f, -0.116444f, 0.294443f, -0.062416f, 0.131935f, 0.092988f, -0.246203f, 0.244276f, -0.285512f, -0.133361f, 0.073995f, 0.196217f, -0.118942f, -0.002814f, 0.043842f, -0.033529f, -0.198825f, 0.060868f, 0.206414f, 0.160864f, -0.032186f, -0.075793f, -0.030897f, -0.067232f, 0.240803f, 0.159785f, -0.177510f, 0.077521f, -0.184615f, 0.181204f, 0.295532f, -0.132171f, 0.075783f, 0.195498f, -0.291449f, -0.296849f, -0.007042f, -0.084721f, 0.231253f, 0.097558f, -0.017585f, 0.114812f, 0.045223f, -0.051694f, 0.167519f, -0.039417f, -0.161624f, -0.089348f, -0.203811f, -0.114045f, 0.263678f, 0.236274f, 0.275771f, 0.027529f, -0.263518f, -0.039528f, 0.183360f, 0.075677f, -0.292253f, -0.023810f, 0.167076f, 0.308750f, 0.030777f, 0.205531f, 0.098696f, -0.010809f, -0.032991f, 0.229878f, 0.207024f, -0.349906f, -0.249944f, 0.259798f, 0.241883f, 0.218545f, -0.155442f, 0.061202f, 0.088165f, -0.311078f, 0.033330f, -0.066989f, -0.102844f, -0.234718f, 0.203556f, -0.049126f, -0.179856f, 0.178134f, 0.199612f, 0.204145f, 0.243009f, 0.310753f, -0.226025f, -0.068507f, -0.131545f, -0.227778f, -0.198943f, -0.247431f, -0.205241f, 0.232902f, -0.054576f, -0.062024f, -0.043654f, 0.230336f, -0.172432f, -0.076497f, 0.267295f, -0.005036f, 0.356798f, -0.001825f, 0.206649f, 0.199020f, 0.031995f, 0.175795f, 0.141675f, -0.035192f, -0.204324f, -0.069460f, -0.111470f, -0.265796f, -0.094080f, 0.270408f, 0.067694f, 0.217645f, 0.088636f, -0.022726f, 0.327061f, 0.181885f, -0.165126f, -0.115750f, 0.229661f, 0.040187f, 0.088956f, 0.132668f, -0.116429f, -0.359834f, 0.250130f, -0.108582f, 0.339936f, 0.261321f, 0.192159f, 0.087776f, 0.142568f, 0.145390f, 0.204521f, 0.211472f, -0.016707f, -0.170560f, -0.152959f, -0.215358f, 0.266204f, -0.014166f, 0.041681f, 0.200216f, -0.295616f, 0.128186f, 0.243240f, -0.222970f, -0.000891f, -0.232832f, -0.151760f };
static const float weather_forecast_layer_9_biases[30] = { -0.038908f, -0.025622f, -0.071379f, -0.057322f, 0.011795f, -0.057732f, -0.033739f, 0.061528f, -0.010628f, -0.012823f, 0.049392f, -0.064326f, -0.059674f, -0.008090f, -0.019067f, 0.023963f, 0.000000f, -0.061020f, -0.009020f, 0.119806f, -0.033953f, -0.036575f, -0.025278f, -0.013393f, 0.104774f, 0.026943f, -0.023197f, -0.036417f, 0.056836f, -0.062651f };
static const float weather_forecast_layer_9_weights[900] = { 0.062743f, 0.078917f, 0.312011f, -0.283559f, 0.080178f, 0.065356f, 0.047036f, 0.127973f, 0.281426f, 0.075167f, 0.146834f, -0.035160f, -0.032150f, -0.132161f, -0.020718f, 0.244615f, -0.286974f, 0.317878f, -0.024698f, -0.001207f, -0.130191f, 0.307730f, -0.261834f, 0.267536f, -0.164460f, 0.182742f, 0.067260f, -0.028092f, 0.050721f, 0.011968f, 0.100145f, 0.238710f, -0.188712f, 0.121187f, 0.301319f, 0.259376f, -0.261710f, 0.104428f, 0.146681f, 0.152076f, -0.142079f, 0.204401f, -0.052421f, -0.040315f, 0.287956f, -0.297694f, -0.023080f, -0.066931f, 0.152748f, -0.021078f, -0.123149f, -0.034920f, -0.231309f, 0.163984f, -0.221649f, 0.236365f, -0.242455f, 0.176085f, -0.198251f, 0.150350f, 0.145958f, -0.270393f, 0.067150f, 0.153259f, 0.123432f, -0.229395f, 0.013960f, -0.244668f, -0.284397f, -0.191664f, -0.302146f, -0.229771f, -0.232430f, -0.203607f, -0.200070f, 0.065451f, -0.135181f, 0.272810f, -0.093387f, 0.280682f, 0.222604f, -0.167002f, -0.143791f, 0.212477f, 0.127804f, -0.100779f, 0.019363f, -0.049796f, 0.217250f, -0.012233f, -0.044974f, 0.065909f, 0.018304f, -0.049704f, -0.162995f, 0.173941f, -0.161464f, -0.201155f, 0.333797f, -0.206394f, 0.187510f, 0.221455f, 0.104104f, -0.044812f, 0.142026f, 0.213318f, 0.126937f, 0.177957f, 0.192606f, -0.051751f, -0.144589f, 0.002562f, -0.000280f, 0.130533f, -0.154387f, -0.031410f, 0.047109f, -0.193126f, -0.015203f, -0.136891f, -0.282952f, 0.212962f, 0.075152f, -0.131790f, 0.111544f, 0.246330f, 0.091350f, -0.103140f, -0.101774f, 0.255603f, 0.106866f, 0.064484f, -0.334136f, 0.046419f, 0.182397f, -0.288832f, 0.228548f, -0.046367f, 0.254631f, 0.004812f, 0.050671f, -0.287952f, -0.283822f, -0.050150f, -0.033480f, -0.110097f, -0.205814f, -0.053648f, -0.211033f, 0.120107f, 0.125778f, -0.014590f, -0.245215f, 0.005481f, -0.256042f, -0.126384f, 0.030519f, 0.283725f, -0.097499f, 0.102780f, -0.256830f, -0.243489f, -0.016402f, -0.279300f, -0.081819f, -0.005382f, -0.284725f, 0.145862f, -0.255784f, -0.097209f, 0.166799f, -0.215803f, -0.117068f, 0.293398f, -0.059042f, -0.178562f, -0.037328f, 0.019478f, 0.128489f, 0.061450f, 0.294384f, -0.116847f, -0.022477f, -0.280784f, -0.203102f, -0.311436f, 0.149579f, -0.003556f, -0.162495f, 0.111579f, 0.215561f, -0.070135f, -0.268412f, -0.012011f, -0.300247f, -0.224766f, 0.171406f, 0.225643f, 0.282098f, -0.015077f, -0.244167f, 0.042936f, 0.050456f, 0.300581f, -0.214060f, 0.071993f, -0.223927f, -0.154103f, 0.288101f, 0.092241f, -0.069525f, 0.103994f, -0.027785f, -0.165146f, 0.002680f, -0.071786f, 0.355240f, -0.258223f, 0.154139f, 0.095636f, 0.179944f, 0.024004f, -0.208029f, -0.323011f, 0.010920f, -0.118778f, -0.282832f, -0.076252f, -0.015274f, 0.368559f, -0.100495f, -0.006080f, -0.031200f, -0.425950f, 0.151982f, -0.072520f, -0.320534f, -0.218354f, 0.145496f, -0.252792f, -0.226570f, 0.124963f, -0.221906f, -0.296782f, -0.199294f, -0.019849f, -0.236741f, -0.071585f, 0.037415f, 0.224265f, 0.178114f, 0.237965f, 0.290707f, -0.121049f, -0.091948f, -0.075641f, 0.150737f, 0.166914f, -0.351568f, -0.018222f, 0.189239f, 0.071596f, -0.171765f, -0.045998f, 0.130156f, -0.088195f, 0.175457f, 0.357222f, -0.177933f, -0.110565f, 0.157797f, -0.260401f, -0.268785f, -0.224598f, -0.115148f, 0.145346f, -0.198413f, -0.219615f, 0.069183f, -0.291645f, 0.054962f, -0.019287f, 0.236771f, -0.336172f, -0.223506f, -0.306664f, -0.004193f, -0.262181f, 0.327651f, 0.024309f, 0.281492f, -0.232317f, -0.163381f, -0.225755f, -0.259574f, -0.296382f, 0.112761f, 0.065488f, 0.119504f, -0.146084f, -0.289309f, -0.120269f, -0.293316f, -0.030582f, 0.042562f, 0.108423f, -0.257827f, -0.087972f, -0.285286f, 0.300853f, 0.270384f, -0.162056f, -0.372452f, -0.193564f, -0.197746f, 0.124057f, -0.081218f, -0.139169f, 0.120777f, 0.093849f, -0.046023f, 0.066320f, -0.264755f, 0.029715f, -0.158306f, -0.177533f, -0.007806f, -0.109633f, 0.068844f, -0.000346f, 0.074587f, 0.240258f, -0.079068f, -0.037644f, 0.031438f, 0.073040f, 0.088940f, -0.011598f, -0.114971f, -0.235802f, 0.139004f, 0.002808f, 0.034553f, 0.029398f, 0.072296f, 0.104298f, -0.099524f, -0.139832f, -0.078644f, 0.086375f, 0.045933f, -0.033340f, 0.104059f, 0.105347f, -0.250725f, 0.236201f, -0.029592f, -0.104790f, 0.175611f, 0.270570f, 0.036478f, 0.291419f, 0.282665f, -0.298098f, 0.164686f, 0.170076f, 0.241365f, 0.178392f, -0.164056f, -0.249173f, -0.218569f, -0.136965f, -0.281812f, -0.137756f, 0.326055f, -0.011590f, 0.149772f, 0.093210f, -0.321786f, -0.296294f, 0.255765f, -0.189558f, -0.248808f, 0.211369f, -0.141137f, -0.180297f, 0.125241f, -0.182419f, 0.202956f, -0.312551f, 0.264871f, 0.268238f, -0.306958f, 0.118413f, 0.109709f, 0.171334f, 0.292780f, -0.101241f, -0.136540f, -0.112207f, -0.280064f, -0.307625f, 0.002541f, -0.076962f, 0.062112f, -0.087990f, 0.223228f, -0.144316f, -0.006741f, -0.242233f, 0.225023f, -0.039586f, -0.011850f, 0.181844f, 0.301768f, -0.214012f, -0.123487f, -0.209809f, 0.104474f, -0.261080f, -0.034346f, -0.205735f, 0.119461f, -0.104453f, -0.274601f, -0.038071f, 0.185179f, 0.078704f, 0.165257f, -0.312209f, 0.271561f, 0.067254f, 0.246898f, 0.044644f, -0.081351f, 0.026855f, -0.270175f, -0.202791f, -0.157519f, 0.130120f, -0.233437f, 0.213791f, 0.054863f, 0.330537f, 0.019030f, -0.156636f, -0.197342f, 0.215624f, 0.178091f, 0.240863f, 0.009276f, -0.158186f, -0.134453f, 0.197630f, -0.031776f, 0.254897f, 0.198638f, -0.227121f, 0.065433f, -0.249312f, 0.145498f, 0.105631f, 0.318207f, 0.331039f, 0.125250f, 0.198253f, -0.177039f, 0.044364f, -0.135363f, -0.291340f, -0.128737f, 0.206113f, 0.040509f, 0.279488f, -0.250655f, -0.131746f, -0.267644f, 0.279923f, -0.274847f, -0.014747f, -0.106642f, 0.173906f, -0.357918f, -0.297453f, 0.053851f, -0.227801f, 0.152826f, 0.112193f, -0.236113f, 0.127922f, 0.095574f, 0.038153f, -0.122125f, -0.297439f, 0.017932f, 0.105433f, -0.053922f, 0.089255f, -0.205811f, 0.258108f, -0.280393f, 0.191097f, -0.188314f, 0.138927f, 0.086168f, -0.111801f, -0.343922f, 0.028495f, -0.032438f, 0.216939f, 0.143382f, 0.111791f, -0.116519f, -0.192529f, 0.191172f, 0.071532f, 0.052418f, -0.273450f, 0.255213f, -0.139571f, -0.179157f, -0.267650f, 0.093306f, 0.020762f, 0.265118f, -0.051314f, -0.282821f, 0.114416f, 0.274629f, 0.187054f, -0.039034f, 0.201440f, -0.035210f, -0.330300f, 0.348047f, -0.226240f, 0.145277f, -0.144527f, -0.131434f, -0.313813f, -0.285024f, -0.090186f, 0.222437f, 0.171877f, 0.167997f, -0.288890f, -0.227049f, -0.100581f, -0.041391f, 0.250401f, -0.096144f, -0.034957f, 0.033112f, -0.285347f, 0.108538f, 0.087859f, -0.175158f, 0.001823f, -0.088071f, 0.126815f, 0.023539f, -0.099551f, 0.254096f, 0.234772f, 0.095035f, 0.112626f, 0.227827f, 0.244095f, -0.158922f, 0.028768f, 0.319094f, -0.179495f, -0.230474f, -0.118459f, -0.233532f, 0.259401f, 0.074833f, 0.048805f, 0.213596f, 0.065361f, -0.319139f, -0.243516f, 0.032874f, -0.057372f, -0.019278f, -0.112525f, -0.139135f, -0.285399f, -0.334503f, -0.167569f, 0.073867f, -0.226002f, -0.012357f, 0.139947f, 0.008398f, 0.258551f, -0.146892f, -0.007552f, 0.135375f, -0.190900f, 0.099093f, -0.217439f, 0.186898f, -0.192159f, 0.027585f, -0.017888f, 0.148552f, 0.254456f, -0.196697f, 0.117905f, 0.250186f, -0.140677f, 0.129375f, 0.095444f, 0.060297f, 0.229280f, -0.279048f, -0.260353f, 0.235710f, 0.011300f, 0.058557f, -0.093214f, -0.005780f, 0.095614f, 0.160293f, -0.169775f, 0.049988f, -0.276890f, 0.151146f, -0.018308f, 0.303610f, 0.255143f, -0.280278f, 0.115851f, 0.066043f, 0.050785f, -0.258983f, 0.074325f, 0.190602f, 0.001793f, 0.277243f, 0.253516f, 0.064521f, 0.262710f, -0.104591f, 0.194899f, -0.141178f, 0.139910f, -0.000930f, 0.204473f, 0.015402f, -0.253035f, 0.217722f, 0.257667f, -0.261046f, 0.102953f, 0.020136f, 0.143270f, 0.108729f, -0.166234f, 0.316106f, -0.258286f, -0.196771f, 0.197341f, -0.133554f, -0.008505f, -0.044949f, 0.182571f, 0.008558f, -0.154596f, 0.277591f, -0.201557f, 0.309912f, 0.066219f, 0.160594f, 0.090595f, 0.237923f, 0.097932f, 0.240580f, 0.255226f, 0.152745f, -0.205067f, -0.327203f, 0.217776f, 0.085772f, -0.117408f, 0.275437f, 0.252238f, -0.152456f, -0.168909f, -0.228828f, 0.033343f, -0.156836f, -0.037593f, 0.237705f, 0.093224f, 0.275792f, 0.343394f, -0.279548f, 0.082188f, 0.064112f, -0.205167f, 0.006859f, 0.013305f, -0.025145f, -0.171718f, 0.103425f, 0.303884f, -0.060988f, -0.227111f, -0.277487f, -0.015793f, 0.304366f, 0.091804f, -0.064461f, 0.263842f, 0.144835f, -0.073433f, -0.170946f, -0.008243f, -0.212702f, 0.254507f, 0.216409f, 0.105681f, -0.282915f, 0.145833f, -0.103166f, -0.334754f, -0.327991f, 0.223423f, -0.314377f, 0.181161f, 0.313622f, 0.114251f, 0.133003f, 0.068239f, -0.142477f, 0.274206f, -0.177578f, -0.232705f, 0.231541f, 0.159691f, 0.282393f, -0.198243f, -0.348594f, 0.127818f, -0.093402f, -0.148747f, 0.178514f, -0.113755f, 0.077135f, -0.043394f, 0.047954f, -0.289257f, 0.189458f, -0.207968f, 0.023561f, 0.160440f, -0.011833f, -0.262663f, 0.329798f, 0.196207f, -0.149317f, 0.030744f, -0.360545f, 0.194899f, 0.109207f, -0.068787f, -0.060097f, 0.244571f, -0.034806f, -0.168452f, -0.257904f, -0.040036f, 0.116472f, 0.131564f, -0.266163f, -0.283183f, 0.138633f, 0.207935f, 0.045845f, 0.021549f, -0.075698f, -0.068243f, 0.256157f, 0.155862f, -0.112292f, -0.280438f, 0.177403f, -0.327500f, 0.253530f, -0.027525f, -0.174579f, -0.015813f, 0.162393f, -0.318614f, 0.173651f, -0.059685f, 0.300426f, -0.157554f, 0.117786f, 0.061408f, -0.229639f, 0.292136f, 0.141421f, 0.290681f, -0.035289f, 0.116032f, -0.112375f, -0.189971f, -0.285312f, -0.270537f, 0.028894f, -0.264515f, 0.222213f, -0.145101f, 0.289059f, 0.084462f, -0.225797f, -0.221288f, 0.313456f, -0.126238f, -0.067044f, 0.157374f, 0.139713f, -0.026596f, 0.141860f, -0.176122f, -0.089215f, 0.029658f, 0.012510f, 0.165139f, -0.147021f, 0.074325f, 0.174914f, -0.214097f, -0.071349f, -0.229876f, -0.325687f, -0.001014f, 0.088724f, -0.110444f, -0.192896f, -0.245574f, 0.132519f, 0.129780f, -0.189975f, -0.075769f, -0.039237f, 0.210561f, -0.177665f, -0.006640f, 0.149818f, 0.133765f, 0.077097f, -0.238627f, 0.088083f, -0.105879f, -0.211193f, -0.264548f, 0.129253f, 0.138465f, 0.072947f, 0.087236f, 0.024995f, 0.182477f, 0.031075f, 0.165361f, -0.345147f, -0.119581f, -0.031927f, -0.278787f, 0.229532f, 0.009217f, 0.243024f, 0.094367f, -0.238144f, -0.098257f, -0.156498f, -0.056328f, 0.120479f, -0.009132f, -0.250732f, -0.012636f, -0.230474f, -0.241111f, -0.026205f, 0.093740f, 0.193126f, -0.171134f, -0.032132f, -0.166427f, -0.272327f, 0.284843f, -0.260220f, -0.158979f, -0.193158f, 0.054619f, 0.163124f, 0.068098f };
static const float weather_forecast_layer_10_biases[30] = { -0.132248f, -0.032365f, -0.069163f, -0.017664f, -0.035446f, -0.039525f, 0.000000f, 0.027222f, -0.020997f, 0.059656f, -0.056312f, 0.096844f, 0.001373f, 0.083891f, -0.058694f, -0.111938f, 0.004756f, -0.055741f, -0.012281f, 0.012785f, 0.003844f, 0.008353f, 0.040773f, 0.028205f, -0.042600f, 0.028520f, 0.073878f, 0.037134f, -0.038111f, 0.000000f };
